{"learner":{"attributes":{"best_iteration":"99","best_ntree_limit":"100","scikit_learn":"{\"use_label_encoder\": true, \"n_estimators\": 100, \"objective\": \"multi:softprob\", \"max_depth\": null, \"learning_rate\": null, \"verbosity\": null, \"booster\": null, \"tree_method\": null, \"gamma\": null, \"min_child_weight\": null, \"max_delta_step\": null, \"subsample\": null, \"colsample_bytree\": null, \"colsample_bylevel\": null, \"colsample_bynode\": null, \"reg_alpha\": null, \"reg_lambda\": null, \"scale_pos_weight\": null, \"base_score\": null, \"missing\": NaN, \"num_parallel_tree\": null, \"random_state\": null, \"n_jobs\": null, \"monotone_constraints\": null, \"interaction_constraints\": null, \"importance_type\": null, \"gpu_id\": null, \"validate_parameters\": null, \"predictor\": null, \"enable_categorical\": false, \"classes_\": [0, 1, 2, 3, 4, 5, 6, 7, 8, 9, 10, 11, 12, 13, 14, 15, 16, 17, 18, 19, 20, 21, 22, 23, 24, 25, 26, 27, 28, 29, 30, 31, 32, 33, 34, 35], \"n_classes_\": 36, \"_le\": {\"classes_\": [0, 1, 2, 3, 4, 5, 6, 7, 8, 9, 10, 11, 12, 13, 14, 15, 16, 17, 18, 19, 20, 21, 22, 23, 24, 25, 26, 27, 28, 29, 30, 31, 32, 33, 34, 35]}, \"_estimator_type\": \"classifier\"}"},"feature_names":[],"feature_types":[],"gradient_booster":{"model":{"gbtree_model_param":{"num_trees":"3600","size_leaf_vector":"0"},"tree_info":[0,1,2,3,4,5,6,7,8,9,10,11,12,13,14,15,16,17,18,19,20,21,22,23,24,25,26,27,28,29,30,31,32,33,34,35,0,1,2,3,4,5,6,7,8,9,10,11,12,13,14,15,16,17,18,19,20,21,22,23,24,25,26,27,28,29,30,31,32,33,34,35,0,1,2,3,4,5,6,7,8,9,10,11,12,13,14,15,16,17,18,19,20,21,22,23,24,25,26,27,28,29,30,31,32,33,34,35,0,1,2,3,4,5,6,7,8,9,10,11,12,13,14,15,16,17,18,19,20,21,22,23,24,25,26,27,28,29,30,31,32,33,34,35,0,1,2,3,4,5,6,7,8,9,10,11,12,13,14,15,16,17,18,19,20,21,22,23,24,25,26,27,28,29,30,31,32,33,34,35,0,1,2,3,4,5,6,7,8,9,10,11,12,13,14,15,16,17,18,19,20,21,22,23,24,25,26,27,28,29,30,31,32,33,34,35,0,1,2,3,4,5,6,7,8,9,10,11,12,13,14,15,16,17,18,19,20,21,22,23,24,25,26,27,28,29,30,31,32,33,34,35,0,1,2,3,4,5,6,7,8,9,10,11,12,13,14,15,16,17,18,19,20,21,22,23,24,25,26,27,28,29,30,31,32,33,34,35,0,1,2,3,4,5,6,7,8,9,10,11,12,13,14,15,16,17,18,19,20,21,22,23,24,25,26,27,28,29,30,31,32,33,34,35,0,1,2,3,4,5,6,7,8,9,10,11,12,13,14,15,16,17,18,19,20,21,22,23,24,25,26,27,28,29,30,31,32,33,34,35,0,1,2,3,4,5,6,7,8,9,10,11,12,13,14,15,16,17,18,19,20,21,22,23,24,25,26,27,28,29,30,31,32,33,34,35,0,1,2,3,4,5,6,7,8,9,10,11,12,13,14,15,16,17,18,19,20,21,22,23,24,25,26,27,28,29,30,31,32,33,34,35,0,1,2,3,4,5,6,7,8,9,10,11,12,13,14,15,16,17,18,19,20,21,22,23,24,25,26,27,28,29,30,31,32,33,34,35,0,1,2,3,4,5,6,7,8,9,10,11,12,13,14,15,16,17,18,19,20,21,22,23,24,25,26,27,28,29,30,31,32,33,34,35,0,1,2,3,4,5,6,7,8,9,10,11,12,13,14,15,16,17,18,19,20,21,22,23,24,25,26,27,28,29,30,31,32,33,34,35,0,1,2,3,4,5,6,7,8,9,10,11,12,13,14,15,16,17,18,19,20,21,22,23,24,25,26,27,28,29,30,31,32,33,34,35,0,1,2,3,4,5,6,7,8,9,10,11,12,13,14,15,16,17,18,19,20,21,22,23,24,25,26,27,28,29,30,31,32,33,34,35,0,1,2,3,4,5,6,7,8,9,10,11,12,13,14,15,16,17,18,19,20,21,22,23,24,25,26,27,28,29,30,31,32,33,34,35,0,1,2,3,4,5,6,7,8,9,10,11,12,13,14,15,16,17,18,19,20,21,22,23,24,25,26,27,28,29,30,31,32,33,34,35,0,1,2,3,4,5,6,7,8,9,10,11,12,13,14,15,16,17,18,19,20,21,22,23,24,25,26,27,28,29,30,31,32,33,34,35,0,1,2,3,4,5,6,7,8,9,10,11,12,13,14,15,16,17,18,19,20,21,22,23,24,25,26,27,28,29,30,31,32,33,34,35,0,1,2,3,4,5,6,7,8,9,10,11,12,13,14,15,16,17,18,19,20,21,22,23,24,25,26,27,28,29,30,31,32,33,34,35,0,1,2,3,4,5,6,7,8,9,10,11,12,13,14,15,16,17,18,19,20,21,22,23,24,25,26,27,28,29,30,31,32,33,34,35,0,1,2,3,4,5,6,7,8,9,10,11,12,13,14,15,16,17,18,19,20,21,22,23,24,25,26,27,28,29,30,31,32,33,34,35,0,1,2,3,4,5,6,7,8,9,10,11,12,13,14,15,16,17,18,19,20,21,22,23,24,25,26,27,28,29,30,31,32,33,34,35,0,1,2,3,4,5,6,7,8,9,10,11,12,13,14,15,16,17,18,19,20,21,22,23,24,25,26,27,28,29,30,31,32,33,34,35,0,1,2,3,4,5,6,7,8,9,10,11,12,13,14,15,16,17,18,19,20,21,22,23,24,25,26,27,28,29,30,31,32,33,34,35,0,1,2,3,4,5,6,7,8,9,10,11,12,13,14,15,16,17,18,19,20,21,22,23,24,25,26,27,28,29,30,31,32,33,34,35,0,1,2,3,4,5,6,7,8,9,10,11,12,13,14,15,16,17,18,19,20,21,22,23,24,25,26,27,28,29,30,31,32,33,34,35,0,1,2,3,4,5,6,7,8,9,10,11,12,13,14,15,16,17,18,19,20,21,22,23,24,25,26,27,28,29,30,31,32,33,34,35,0,1,2,3,4,5,6,7,8,9,10,11,12,13,14,15,16,17,18,19,20,21,22,23,24,25,26,27,28,29,30,31,32,33,34,35,0,1,2,3,4,5,6,7,8,9,10,11,12,13,14,15,16,17,18,19,20,21,22,23,24,25,26,27,28,29,30,31,32,33,34,35,0,1,2,3,4,5,6,7,8,9,10,11,12,13,14,15,16,17,18,19,20,21,22,23,24,25,26,27,28,29,30,31,32,33,34,35,0,1,2,3,4,5,6,7,8,9,10,11,12,13,14,15,16,17,18,19,20,21,22,23,24,25,26,27,28,29,30,31,32,33,34,35,0,1,2,3,4,5,6,7,8,9,10,11,12,13,14,15,16,17,18,19,20,21,22,23,24,25,26,27,28,29,30,31,32,33,34,35,0,1,2,3,4,5,6,7,8,9,10,11,12,13,14,15,16,17,18,19,20,21,22,23,24,25,26,27,28,29,30,31,32,33,34,35,0,1,2,3,4,5,6,7,8,9,10,11,12,13,14,15,16,17,18,19,20,21,22,23,24,25,26,27,28,29,30,31,32,33,34,35,0,1,2,3,4,5,6,7,8,9,10,11,12,13,14,15,16,17,18,19,20,21,22,23,24,25,26,27,28,29,30,31,32,33,34,35,0,1,2,3,4,5,6,7,8,9,10,11,12,13,14,15,16,17,18,19,20,21,22,23,24,25,26,27,28,29,30,31,32,33,34,35,0,1,2,3,4,5,6,7,8,9,10,11,12,13,14,15,16,17,18,19,20,21,22,23,24,25,26,27,28,29,30,31,32,33,34,35,0,1,2,3,4,5,6,7,8,9,10,11,12,13,14,15,16,17,18,19,20,21,22,23,24,25,26,27,28,29,30,31,32,33,34,35,0,1,2,3,4,5,6,7,8,9,10,11,12,13,14,15,16,17,18,19,20,21,22,23,24,25,26,27,28,29,30,31,32,33,34,35,0,1,2,3,4,5,6,7,8,9,10,11,12,13,14,15,16,17,18,19,20,21,22,23,24,25,26,27,28,29,30,31,32,33,34,35,0,1,2,3,4,5,6,7,8,9,10,11,12,13,14,15,16,17,18,19,20,21,22,23,24,25,26,27,28,29,30,31,32,33,34,35,0,1,2,3,4,5,6,7,8,9,10,11,12,13,14,15,16,17,18,19,20,21,22,23,24,25,26,27,28,29,30,31,32,33,34,35,0,1,2,3,4,5,6,7,8,9,10,11,12,13,14,15,16,17,18,19,20,21,22,23,24,25,26,27,28,29,30,31,32,33,34,35,0,1,2,3,4,5,6,7,8,9,10,11,12,13,14,15,16,17,18,19,20,21,22,23,24,25,26,27,28,29,30,31,32,33,34,35,0,1,2,3,4,5,6,7,8,9,10,11,12,13,14,15,16,17,18,19,20,21,22,23,24,25,26,27,28,29,30,31,32,33,34,35,0,1,2,3,4,5,6,7,8,9,10,11,12,13,14,15,16,17,18,19,20,21,22,23,24,25,26,27,28,29,30,31,32,33,34,35,0,1,2,3,4,5,6,7,8,9,10,11,12,13,14,15,16,17,18,19,20,21,22,23,24,25,26,27,28,29,30,31,32,33,34,35,0,1,2,3,4,5,6,7,8,9,10,11,12,13,14,15,16,17,18,19,20,21,22,23,24,25,26,27,28,29,30,31,32,33,34,35,0,1,2,3,4,5,6,7,8,9,10,11,12,13,14,15,16,17,18,19,20,21,22,23,24,25,26,27,28,29,30,31,32,33,34,35,0,1,2,3,4,5,6,7,8,9,10,11,12,13,14,15,16,17,18,19,20,21,22,23,24,25,26,27,28,29,30,31,32,33,34,35,0,1,2,3,4,5,6,7,8,9,10,11,12,13,14,15,16,17,18,19,20,21,22,23,24,25,26,27,28,29,30,31,32,33,34,35,0,1,2,3,4,5,6,7,8,9,10,11,12,13,14,15,16,17,18,19,20,21,22,23,24,25,26,27,28,29,30,31,32,33,34,35,0,1,2,3,4,5,6,7,8,9,10,11,12,13,14,15,16,17,18,19,20,21,22,23,24,25,26,27,28,29,30,31,32,33,34,35,0,1,2,3,4,5,6,7,8,9,10,11,12,13,14,15,16,17,18,19,20,21,22,23,24,25,26,27,28,29,30,31,32,33,34,35,0,1,2,3,4,5,6,7,8,9,10,11,12,13,14,15,16,17,18,19,20,21,22,23,24,25,26,27,28,29,30,31,32,33,34,35,0,1,2,3,4,5,6,7,8,9,10,11,12,13,14,15,16,17,18,19,20,21,22,23,24,25,26,27,28,29,30,31,32,33,34,35,0,1,2,3,4,5,6,7,8,9,10,11,12,13,14,15,16,17,18,19,20,21,22,23,24,25,26,27,28,29,30,31,32,33,34,35,0,1,2,3,4,5,6,7,8,9,10,11,12,13,14,15,16,17,18,19,20,21,22,23,24,25,26,27,28,29,30,31,32,33,34,35,0,1,2,3,4,5,6,7,8,9,10,11,12,13,14,15,16,17,18,19,20,21,22,23,24,25,26,27,28,29,30,31,32,33,34,35,0,1,2,3,4,5,6,7,8,9,10,11,12,13,14,15,16,17,18,19,20,21,22,23,24,25,26,27,28,29,30,31,32,33,34,35,0,1,2,3,4,5,6,7,8,9,10,11,12,13,14,15,16,17,18,19,20,21,22,23,24,25,26,27,28,29,30,31,32,33,34,35,0,1,2,3,4,5,6,7,8,9,10,11,12,13,14,15,16,17,18,19,20,21,22,23,24,25,26,27,28,29,30,31,32,33,34,35,0,1,2,3,4,5,6,7,8,9,10,11,12,13,14,15,16,17,18,19,20,21,22,23,24,25,26,27,28,29,30,31,32,33,34,35,0,1,2,3,4,5,6,7,8,9,10,11,12,13,14,15,16,17,18,19,20,21,22,23,24,25,26,27,28,29,30,31,32,33,34,35,0,1,2,3,4,5,6,7,8,9,10,11,12,13,14,15,16,17,18,19,20,21,22,23,24,25,26,27,28,29,30,31,32,33,34,35,0,1,2,3,4,5,6,7,8,9,10,11,12,13,14,15,16,17,18,19,20,21,22,23,24,25,26,27,28,29,30,31,32,33,34,35,0,1,2,3,4,5,6,7,8,9,10,11,12,13,14,15,16,17,18,19,20,21,22,23,24,25,26,27,28,29,30,31,32,33,34,35,0,1,2,3,4,5,6,7,8,9,10,11,12,13,14,15,16,17,18,19,20,21,22,23,24,25,26,27,28,29,30,31,32,33,34,35,0,1,2,3,4,5,6,7,8,9,10,11,12,13,14,15,16,17,18,19,20,21,22,23,24,25,26,27,28,29,30,31,32,33,34,35,0,1,2,3,4,5,6,7,8,9,10,11,12,13,14,15,16,17,18,19,20,21,22,23,24,25,26,27,28,29,30,31,32,33,34,35,0,1,2,3,4,5,6,7,8,9,10,11,12,13,14,15,16,17,18,19,20,21,22,23,24,25,26,27,28,29,30,31,32,33,34,35,0,1,2,3,4,5,6,7,8,9,10,11,12,13,14,15,16,17,18,19,20,21,22,23,24,25,26,27,28,29,30,31,32,33,34,35,0,1,2,3,4,5,6,7,8,9,10,11,12,13,14,15,16,17,18,19,20,21,22,23,24,25,26,27,28,29,30,31,32,33,34,35,0,1,2,3,4,5,6,7,8,9,10,11,12,13,14,15,16,17,18,19,20,21,22,23,24,25,26,27,28,29,30,31,32,33,34,35,0,1,2,3,4,5,6,7,8,9,10,11,12,13,14,15,16,17,18,19,20,21,22,23,24,25,26,27,28,29,30,31,32,33,34,35,0,1,2,3,4,5,6,7,8,9,10,11,12,13,14,15,16,17,18,19,20,21,22,23,24,25,26,27,28,29,30,31,32,33,34,35,0,1,2,3,4,5,6,7,8,9,10,11,12,13,14,15,16,17,18,19,20,21,22,23,24,25,26,27,28,29,30,31,32,33,34,35,0,1,2,3,4,5,6,7,8,9,10,11,12,13,14,15,16,17,18,19,20,21,22,23,24,25,26,27,28,29,30,31,32,33,34,35,0,1,2,3,4,5,6,7,8,9,10,11,12,13,14,15,16,17,18,19,20,21,22,23,24,25,26,27,28,29,30,31,32,33,34,35,0,1,2,3,4,5,6,7,8,9,10,11,12,13,14,15,16,17,18,19,20,21,22,23,24,25,26,27,28,29,30,31,32,33,34,35,0,1,2,3,4,5,6,7,8,9,10,11,12,13,14,15,16,17,18,19,20,21,22,23,24,25,26,27,28,29,30,31,32,33,34,35,0,1,2,3,4,5,6,7,8,9,10,11,12,13,14,15,16,17,18,19,20,21,22,23,24,25,26,27,28,29,30,31,32,33,34,35,0,1,2,3,4,5,6,7,8,9,10,11,12,13,14,15,16,17,18,19,20,21,22,23,24,25,26,27,28,29,30,31,32,33,34,35,0,1,2,3,4,5,6,7,8,9,10,11,12,13,14,15,16,17,18,19,20,21,22,23,24,25,26,27,28,29,30,31,32,33,34,35,0,1,2,3,4,5,6,7,8,9,10,11,12,13,14,15,16,17,18,19,20,21,22,23,24,25,26,27,28,29,30,31,32,33,34,35,0,1,2,3,4,5,6,7,8,9,10,11,12,13,14,15,16,17,18,19,20,21,22,23,24,25,26,27,28,29,30,31,32,33,34,35,0,1,2,3,4,5,6,7,8,9,10,11,12,13,14,15,16,17,18,19,20,21,22,23,24,25,26,27,28,29,30,31,32,33,34,35,0,1,2,3,4,5,6,7,8,9,10,11,12,13,14,15,16,17,18,19,20,21,22,23,24,25,26,27,28,29,30,31,32,33,34,35,0,1,2,3,4,5,6,7,8,9,10,11,12,13,14,15,16,17,18,19,20,21,22,23,24,25,26,27,28,29,30,31,32,33,34,35,0,1,2,3,4,5,6,7,8,9,10,11,12,13,14,15,16,17,18,19,20,21,22,23,24,25,26,27,28,29,30,31,32,33,34,35,0,1,2,3,4,5,6,7,8,9,10,11,12,13,14,15,16,17,18,19,20,21,22,23,24,25,26,27,28,29,30,31,32,33,34,35,0,1,2,3,4,5,6,7,8,9,10,11,12,13,14,15,16,17,18,19,20,21,22,23,24,25,26,27,28,29,30,31,32,33,34,35,0,1,2,3,4,5,6,7,8,9,10,11,12,13,14,15,16,17,18,19,20,21,22,23,24,25,26,27,28,29,30,31,32,33,34,35,0,1,2,3,4,5,6,7,8,9,10,11,12,13,14,15,16,17,18,19,20,21,22,23,24,25,26,27,28,29,30,31,32,33,34,35,0,1,2,3,4,5,6,7,8,9,10,11,12,13,14,15,16,17,18,19,20,21,22,23,24,25,26,27,28,29,30,31,32,33,34,35,0,1,2,3,4,5,6,7,8,9,10,11,12,13,14,15,16,17,18,19,20,21,22,23,24,25,26,27,28,29,30,31,32,33,34,35,0,1,2,3,4,5,6,7,8,9,10,11,12,13,14,15,16,17,18,19,20,21,22,23,24,25,26,27,28,29,30,31,32,33,34,35],"trees":[{"base_weights":[-1.5023183E-3,-5.126966E-1,1.735852E1,-5.137454E-1,2.3305406E-1],"categories":[],"categories_nodes":[],"categories_segments":[],"categories_sizes":[],"default_left":[true,true,false,false,false],"id":0,"left_children":[1,3,-1,-1,-1],"loss_changes":[8.705524E3,8.6505127E-1,0E0,0E0,0E0],"parents":[2147483647,0,0,1,1],"right_children":[2,4,-1,-1,-1],"split_conditions":[1.5608375E0,9.334475E-1,5.2075562E0,-1.5412363E-1,6.991622E-2],"split_indices":[471,398,0,0,0],"split_type":[0,0,0,0,0],"sum_hessian":[9.789738E2,9.519136E2,2.7060186E1,9.508874E2,1.0262346E0],"tree_param":{"num_deleted":"0","num_feature":"512","num_nodes":"5","size_leaf_vector":"0"}},{"base_weights":[1.5589881E-3,-4.7593454E-1,1.5748556E1,-4.9579066E-1,2.6685123E0,-3.6894897E-1,1.7316416E1,-5.105026E-1,2.4801424E-1,-4.1354293E-1,9.116527E0,-5.115753E-1,1.4516129E-1,-4.857363E-1,6.6488953E0,-5.1264805E-1,-1.3291878E-1,-3.3962265E-1,2.3305406E-1],"categories":[],"categories_nodes":[],"categories_segments":[],"categories_sizes":[],"default_left":[true,true,true,true,true,false,false,true,true,false,false,true,false,false,false,false,true,false,false],"id":1,"left_children":[1,3,5,7,9,-1,-1,11,13,-1,-1,15,-1,-1,-1,-1,17,-1,-1],"loss_changes":[7.3760054E3,6.076912E1,7.359424E2,1.0489105E1,1.25615715E2,0E0,0E0,7.2761536E-1,9.26544E1,0E0,0E0,3.0867004E-1,0E0,0E0,0E0,0E0,3.7952435E-1,0E0,0E0],"parents":[2147483647,0,0,1,1,2,2,3,3,4,4,7,7,8,8,11,11,16,16],"right_children":[2,4,6,8,10,-1,-1,12,14,-1,-1,16,-1,-1,-1,-1,18,-1,-1],"split_conditions":[8.928041E-1,8.599155E-1,7.1697557E-1,7.957383E-1,7.866436E-1,-1.1068469E-1,5.194925E0,1.0150399E0,7.1566904E-1,-1.2406288E-1,2.7349582E0,7.8258157E-1,4.3548387E-2,-1.457209E-1,1.9946686E0,-1.5379442E-1,9.8640315E-2,-1.018868E-1,6.991622E-2],"split_indices":[326,326,4,365,4,0,0,160,4,0,0,365,0,0,0,0,0,0,0],"split_type":[0,0,0,0,0,0,0,0,0,0,0,0,0,0,0,0,0,0,0],"sum_hessian":[9.789738E2,9.511034E2,2.787037E1,9.459722E2,5.131173E0,2.5385804E0,2.533179E1,9.279321E2,1.8040123E1,4.1049385E0,1.0262346E0,9.266358E2,1.2962964E0,1.701389E1,1.0262346E0,9.2366516E2,2.970679E0,1.9444445E0,1.0262346E0],"tree_param":{"num_deleted":"0","num_feature":"512","num_nodes":"19","size_leaf_vector":"0"}},{"base_weights":[1.5589881E-3,-5.137459E-1,1.7363422E1],"categories":[],"categories_nodes":[],"categories_segments":[],"categories_sizes":[],"default_left":[true,false,false],"id":2,"left_children":[1,-1,-1],"loss_changes":[8.776406E3,0E0,0E0],"parents":[2147483647,0,0],"right_children":[2,-1,-1],"split_conditions":[4.4274452E-1,-1.5412378E-1,5.209027E0],"split_indices":[386,0,0],"split_type":[0,0,0],"sum_hessian":[9.789738E2,9.516976E2,2.7276236E1],"tree_param":{"num_deleted":"0","num_feature":"512","num_nodes":"3","size_leaf_vector":"0"}},{"base_weights":[-1.5023183E-3,-5.1374596E-1,1.7359753E1],"categories":[],"categories_nodes":[],"categories_segments":[],"categories_sizes":[],"default_left":[true,false,false],"id":3,"left_children":[1,-1,-1],"loss_changes":[8.724016E3,0E0,0E0],"parents":[2147483647,0,0],"right_children":[2,-1,-1],"split_conditions":[1.9019082E0,-1.541238E-1,5.207926E0],"split_indices":[2,0,0],"split_type":[0,0,0],"sum_hessian":[9.789738E2,9.518596E2,2.7114199E1],"tree_param":{"num_deleted":"0","num_feature":"512","num_nodes":"3","size_leaf_vector":"0"}},{"base_weights":[-1.5023183E-3,-5.1374596E-1,1.7359753E1],"categories":[],"categories_nodes":[],"categories_segments":[],"categories_sizes":[],"default_left":[true,false,false],"id":4,"left_children":[1,-1,-1],"loss_changes":[8.724016E3,0E0,0E0],"parents":[2147483647,0,0],"right_children":[2,-1,-1],"split_conditions":[1.155369E-1,-1.541238E-1,5.207926E0],"split_indices":[119,0,0],"split_type":[0,0,0],"sum_hessian":[9.789738E2,9.518596E2,2.7114199E1],"tree_param":{"num_deleted":"0","num_feature":"512","num_nodes":"3","size_leaf_vector":"0"}},{"base_weights":[-4.8188283E-4,-5.0115526E-1,1.7103882E1,-5.116448E-1,4.6747904E0,-5.1374495E-1,7.265803E-1],"categories":[],"categories_nodes":[],"categories_segments":[],"categories_sizes":[],"default_left":[true,true,false,true,false,false,false],"id":5,"left_children":[1,3,-1,5,-1,-1,-1],"loss_changes":[8.400773E3,5.4137253E1,0E0,2.8490448E0,0E0,0E0,0E0],"parents":[2147483647,0,0,1,1,3,3],"right_children":[2,4,-1,6,-1,-1,-1],"split_conditions":[8.38009E-1,1.2038414E0,5.1311646E0,1.180583E0,1.4024372E0,-1.5412349E-1,2.1797411E-1],"split_indices":[413,124,0,123,0,0,0],"split_type":[0,0,0,0,0,0,0],"sum_hessian":[9.789738E2,9.520756E2,2.689815E1,9.510494E2,1.0262346E0,9.500232E2,1.0262346E0],"tree_param":{"num_deleted":"0","num_feature":"512","num_nodes":"7","size_leaf_vector":"0"}},{"base_weights":[-4.8188283E-4,-4.3621776E-1,1.56975765E1,-5.073249E-1,2.9752417E0,-3.5949838E-1,1.7255314E1,-5.1373035E-1,9.021909E-2,-4.8206517E-1,1.4147952E1,-4.6153846E-1,2.7006853E0],"categories":[],"categories_nodes":[],"categories_segments":[],"categories_sizes":[],"default_left":[true,true,true,true,true,false,false,false,true,false,false,false,false],"id":6,"left_children":[1,3,5,7,9,-1,-1,-1,11,-1,-1,-1,-1],"loss_changes":[6.7100713E3,2.3304614E2,6.6888574E2,3.6283722E0,7.652423E2,0E0,0E0,0E0,1.676796E1,0E0,0E0,0E0,0E0],"parents":[2147483647,0,0,1,1,2,2,3,3,4,4,8,8],"right_children":[2,4,6,8,10,-1,-1,-1,12,-1,-1,-1,-1],"split_conditions":[4.3328732E-1,3.4882042E-1,8.435941E-2,5.970584E-1,3.640809E-1,-1.07849516E-1,5.1765943E0,-1.541191E-1,1.9527203E-3,-1.4461955E-1,4.2443857E0,-1.3846155E-1,8.1020564E-1],"split_indices":[200,200,64,110,118,0,0,0,7,0,0,0,0],"split_type":[0,0,0,0,0,0,0,0,0,0,0,0,0],"sum_hessian":[9.789738E2,9.5348E2,2.5493828E1,9.348457E2,1.863426E1,2.322531E0,2.3171297E1,9.2506946E2,9.776235E0,1.496142E1,3.6728396E0,8.75E0,1.0262346E0],"tree_param":{"num_deleted":"0","num_feature":"512","num_nodes":"13","size_leaf_vector":"0"}},{"base_weights":[5.3855265E-4,-4.8954782E-1,1.5305886E1,-5.042592E-1,5.024735E0,-3.9889196E-1,1.7332836E1,-5.1057696E-1,2.2573867E0,-5.12684E-1,2.8124997E-1,-5.137409E-1,1.15532726E-1,7.265803E-1,-2.7331886E-1],"categories":[],"categories_nodes":[],"categories_segments":[],"categories_sizes":[],"default_left":[true,true,true,true,false,false,false,true,false,true,true,false,false,false,false],"id":7,"left_children":[1,3,5,7,-1,-1,-1,9,-1,11,13,-1,-1,-1,-1],"loss_changes":[7.358219E3,7.9644135E1,9.758003E2,1.7708633E1,0E0,0E0,0E0,1.7250977E0,0E0,6.87088E-1,9.791237E-1,0E0,0E0,0E0,0E0],"parents":[2147483647,0,0,1,1,2,2,3,3,7,7,9,9,10,10],"right_children":[2,4,6,8,-1,-1,-1,10,-1,12,14,-1,-1,-1,-1],"split_conditions":[4.5950082E-1,2.9988593E-1,7.132521E-2,2.0572991E0,1.5074205E0,-1.1966759E-1,5.199851E0,2.7547863E-1,6.7721605E-1,5.0315604E-2,1.5400288E0,-1.5412228E-1,3.4659818E-2,2.1797411E-1,-8.199566E-2],"split_indices":[498,290,26,34,0,0,0,49,0,242,0,0,0,0,0],"split_type":[0,0,0,0,0,0,0,0,0,0,0,0,0,0,0],"sum_hessian":[9.789738E2,9.4953705E2,2.943673E1,9.479167E2,1.6203704E0,3.4567902E0,2.5979939E1,9.465664E2,1.3503087E0,9.444059E2,2.1604939E0,9.430016E2,1.4043211E0,1.0262346E0,1.1342593E0],"tree_param":{"num_deleted":"0","num_feature":"512","num_nodes":"15","size_leaf_vector":"0"}},{"base_weights":[-2.5227538E-3,-5.13746E-1,1.735852E1],"categories":[],"categories_nodes":[],"categories_segments":[],"categories_sizes":[],"default_left":[true,false,false],"id":8,"left_children":[1,-1,-1],"loss_changes":[8.706547E3,0E0,0E0],"parents":[2147483647,0,0],"right_children":[2,-1,-1],"split_conditions":[1.2842534E0,-1.5412381E-1,5.2075562E0],"split_indices":[18,0,0],"split_type":[0,0,0],"sum_hessian":[9.789738E2,9.519136E2,2.7060186E1],"tree_param":{"num_deleted":"0","num_feature":"512","num_nodes":"3","size_leaf_vector":"0"}},{"base_weights":[1.5589881E-3,-5.021812E-1,1.6116669E1,-5.1269E-1,2.7025495E0,-3.4580383E-1,1.734976E1,-5.1374316E-1,2.3305406E-1,4.6747904E0,-2.8492773E-1],"categories":[],"categories_nodes":[],"categories_segments":[],"categories_sizes":[],"default_left":[true,true,true,true,true,false,false,false,false,false,false],"id":9,"left_children":[1,3,5,7,9,-1,-1,-1,-1,-1,-1],"loss_changes":[7.963353E3,3.342128E1,6.09603E2,8.6505127E-1,2.0590172E1,0E0,0E0,0E0,0E0,0E0,0E0],"parents":[2147483647,0,0,1,1,2,2,3,3,4,4],"right_children":[2,4,6,8,10,-1,-1,-1,-1,-1,-1],"split_conditions":[6.740979E-1,6.567998E-1,7.541107E-1,6.4941907E-1,1.8457169E-2,-1.03741154E-1,5.2049284E0,-1.5412295E-1,6.991622E-2,1.4024372E0,-8.547832E-2],"split_indices":[327,327,12,327,0,0,0,0,0,0,0],"split_type":[0,0,0,0,0,0,0,0,0,0,0],"sum_hessian":[9.789738E2,9.502392E2,2.873457E1,9.479707E2,2.2685187E0,2.0524693E0,2.66821E1,9.4694446E2,1.0262346E0,1.0262346E0,1.2422839E0],"tree_param":{"num_deleted":"0","num_feature":"512","num_nodes":"11","size_leaf_vector":"0"}},{"base_weights":[5.3855265E-4,-5.137459E-1,1.7362204E1],"categories":[],"categories_nodes":[],"categories_segments":[],"categories_sizes":[],"default_left":[true,false,false],"id":10,"left_children":[1,-1,-1],"loss_changes":[8.758943E3,0E0,0E0],"parents":[2147483647,0,0],"right_children":[2,-1,-1],"split_conditions":[2.4806418E0,-1.5412378E-1,5.208661E0],"split_indices":[307,0,0],"split_type":[0,0,0],"sum_hessian":[9.789738E2,9.517516E2,2.7222223E1],"tree_param":{"num_deleted":"0","num_feature":"512","num_nodes":"3","size_leaf_vector":"0"}},{"base_weights":[-4.8188283E-4,-5.1374596E-1,1.7360981E1],"categories":[],"categories_nodes":[],"categories_segments":[],"categories_sizes":[],"default_left":[true,false,false],"id":11,"left_children":[1,-1,-1],"loss_changes":[8.74148E3,0E0,0E0],"parents":[2147483647,0,0],"right_children":[2,-1,-1],"split_conditions":[1.2669022E0,-1.541238E-1,5.2082944E0],"split_indices":[504,0,0],"split_type":[0,0,0],"sum_hessian":[9.789738E2,9.518056E2,2.7168211E1],"tree_param":{"num_deleted":"0","num_feature":"512","num_nodes":"3","size_leaf_vector":"0"}},{"base_weights":[1.5589881E-3,-4.6346924E-1,1.6896406E1,-4.9799743E-1,9.911666E0,3.687738E0,1.7287172E1,-5.084888E-1,4.1748104E0,-5.1374286E-1,6.262368E-1,2.207159E0,-3.7925446E-1],"categories":[],"categories_nodes":[],"categories_segments":[],"categories_sizes":[],"default_left":[true,true,true,true,false,false,false,true,false,false,true,false,false],"id":12,"left_children":[1,3,5,7,-1,-1,-1,9,-1,-1,11,-1,-1],"loss_changes":[7.7070737E3,3.4694116E2,7.1882324E1,4.8817276E1,0E0,0E0,0E0,5.992996E0,0E0,0E0,8.522613E0,0E0,0E0],"parents":[2147483647,0,0,1,1,2,2,3,3,7,7,10,10],"right_children":[2,4,6,8,-1,-1,-1,10,-1,-1,12,-1,-1],"split_conditions":[5.279325E-1,3.2246426E-1,1.033581E0,2.7701545E-1,2.9734998E0,1.1063215E0,5.186152E0,2.2282918E-1,1.2524432E0,-1.5412286E-1,1.3810921E0,6.6214776E-1,-1.1377634E-1],"split_indices":[462,235,0,23,0,0,0,235,0,0,0,0,0],"split_type":[0,0,0,0,0,0,0,0,0,0,0,0,0],"sum_hessian":[9.789738E2,9.53696E2,2.5277779E1,9.514815E2,2.2145061E0,1.0262346E0,2.4251543E1,9.502392E2,1.2422839E0,9.4640436E2,3.8348765E0,1.0262346E0,2.8086421E0],"tree_param":{"num_deleted":"0","num_feature":"512","num_nodes":"13","size_leaf_vector":"0"}},{"base_weights":[1.5589881E-3,-5.1059717E-1,1.7291338E1,-5.137453E-1,1.2201066E0],"categories":[],"categories_nodes":[],"categories_segments":[],"categories_sizes":[],"default_left":[true,true,false,false,false],"id":13,"left_children":[1,3,-1,-1,-1],"loss_changes":[8.6865625E3,5.817978E0,0E0,0E0,0E0],"parents":[2147483647,0,0,1,1],"right_children":[2,4,-1,-1,-1],"split_conditions":[5.1659286E-1,5.4833186E-1,5.187402E0,-1.541236E-1,3.66032E-1],"split_indices":[194,97,0,0,0],"split_type":[0,0,0,0,0],"sum_hessian":[9.789738E2,9.517516E2,2.7222223E1,9.5072534E2,1.0262346E0],"tree_param":{"num_deleted":"0","num_feature":"512","num_nodes":"5","size_leaf_vector":"0"}},{"base_weights":[2.5794236E-3,-5.0430185E-1,1.7250164E1,-5.1269495E-1,3.687738E0,-5.137449E-1,2.3305406E-1],"categories":[],"categories_nodes":[],"categories_segments":[],"categories_sizes":[],"default_left":[true,true,false,true,false,false,false],"id":14,"left_children":[1,3,-1,5,-1,-1,-1],"loss_changes":[8.576099E3,3.5420166E1,0E0,8.6505127E-1,0E0,0E0,0E0],"parents":[2147483647,0,0,1,1,3,3],"right_children":[2,4,-1,6,-1,-1,-1],"split_conditions":[8.0645657E-1,1.3820245E0,5.1750493E0,6.0216617E-3,1.1063215E0,-1.5412347E-1,6.991622E-2],"split_indices":[253,360,0,85,0,0,0],"split_type":[0,0,0,0,0,0,0],"sum_hessian":[9.789738E2,9.519676E2,2.7006174E1,9.509414E2,1.0262346E0,9.4991516E2,1.0262346E0],"tree_param":{"num_deleted":"0","num_feature":"512","num_nodes":"7","size_leaf_vector":"0"}},{"base_weights":[-2.5227538E-3,-5.13746E-1,1.735852E1],"categories":[],"categories_nodes":[],"categories_segments":[],"categories_sizes":[],"default_left":[true,false,false],"id":15,"left_children":[1,-1,-1],"loss_changes":[8.706547E3,0E0,0E0],"parents":[2147483647,0,0],"right_children":[2,-1,-1],"split_conditions":[1.4513943E-1,-1.5412381E-1,5.2075562E0],"split_indices":[162,0,0],"split_type":[0,0,0],"sum_hessian":[9.789738E2,9.519136E2,2.7060186E1],"tree_param":{"num_deleted":"0","num_feature":"512","num_nodes":"3","size_leaf_vector":"0"}},{"base_weights":[1.5589881E-3,-5.0954837E-1,1.735852E1,-5.137454E-1,1.7136328E0],"categories":[],"categories_nodes":[],"categories_segments":[],"categories_sizes":[],"default_left":[true,true,false,false,false],"id":16,"left_children":[1,3,-1,-1,-1],"loss_changes":[8.702458E3,9.771851E0,0E0,0E0,0E0],"parents":[2147483647,0,0,1,1],"right_children":[2,4,-1,-1,-1],"split_conditions":[6.246409E-1,2.829991E-1,5.2075562E0,-1.5412363E-1,5.140899E-1],"split_indices":[353,380,0,0,0],"split_type":[0,0,0,0,0],"sum_hessian":[9.789738E2,9.519136E2,2.7060186E1,9.508874E2,1.0262346E0],"tree_param":{"num_deleted":"0","num_feature":"512","num_nodes":"5","size_leaf_vector":"0"}},{"base_weights":[5.3855265E-4,1.491181E1,-5.1374334E-1,-4.2048973E-1,1.7362204E1],"categories":[],"categories_nodes":[],"categories_segments":[],"categories_sizes":[],"default_left":[true,true,false,false,false],"id":17,"left_children":[1,3,-1,-1,-1],"loss_changes":[7.522685E3,1.2360425E3,0E0,0E0,0E0],"parents":[2147483647,0,0,1,1],"right_children":[2,4,-1,-1,-1],"split_conditions":[1.7171049E-5,8.589089E-1,-1.5412301E-1,-1.2614693E-1,5.208661E0],"split_indices":[326,26,0,0,0],"split_type":[0,0,0,0,0],"sum_hessian":[9.789738E2,3.1705248E1,9.4726855E2,4.4830246E0,2.7222223E1],"tree_param":{"num_deleted":"0","num_feature":"512","num_nodes":"5","size_leaf_vector":"0"}},{"base_weights":[-1.5023183E-3,1.7359753E1,-5.1374596E-1],"categories":[],"categories_nodes":[],"categories_segments":[],"categories_sizes":[],"default_left":[true,false,false],"id":18,"left_children":[1,-1,-1],"loss_changes":[8.724016E3,0E0,0E0],"parents":[2147483647,0,0],"right_children":[2,-1,-1],"split_conditions":[6.958107E-1,5.207926E0,-1.541238E-1],"split_indices":[113,0,0],"split_type":[0,0,0],"sum_hessian":[9.789738E2,2.7114199E1,9.518596E2],"tree_param":{"num_deleted":"0","num_feature":"512","num_nodes":"3","size_leaf_vector":"0"}},{"base_weights":[-4.8188283E-4,-4.7434956E-1,1.0695342E1,-5.020005E-1,8.0208645E0,1.7312181E1,-4.8301744E-1,-5.115983E-1,3.0432775E0,-5.13734E-1,4.9861487E-2,7.265803E-1,-3.6437246E-1],"categories":[],"categories_nodes":[],"categories_segments":[],"categories_sizes":[],"default_left":[true,true,true,true,false,false,false,true,false,false,true,false,false],"id":19,"left_children":[1,3,5,7,-1,-1,-1,9,-1,-1,11,-1,-1],"loss_changes":[4.971978E3,2.2468217E2,3.086602E3,3.3448486E1,0E0,0E0,0E0,1.1474609E0,0E0,0E0,1.5140729E0,0E0,0E0],"parents":[2147483647,0,0,1,1,2,2,3,3,7,7,10,10],"right_children":[2,4,6,8,-1,-1,-1,10,-1,-1,12,-1,-1],"split_conditions":[5.339684E-1,9.1062117E-1,6.2950104E-1,1.3391646E0,2.4062595E0,5.1936545E0,-1.4490524E-1,5.987998E-1,9.129833E-1,-1.541202E-1,7.9823303E-1,2.1797411E-1,-1.09311745E-1],"split_indices":[52,500,0,444,0,0,0,99,0,0,0,0,0],"split_type":[0,0,0,0,0,0,0,0,0,0,0,0,0],"sum_hessian":[9.789738E2,9.383565E2,4.0617287E1,9.3625E2,2.1064816E0,2.5169754E1,1.5447532E1,9.345756E2,1.6743828E0,9.3111884E2,3.4567902E0,1.0262346E0,2.4305556E0],"tree_param":{"num_deleted":"0","num_feature":"512","num_nodes":"13","size_leaf_vector":"0"}},{"base_weights":[-4.8188283E-4,-5.1374596E-1,1.7360981E1],"categories":[],"categories_nodes":[],"categories_segments":[],"categories_sizes":[],"default_left":[true,false,false],"id":20,"left_children":[1,-1,-1],"loss_changes":[8.74148E3,0E0,0E0],"parents":[2147483647,0,0],"right_children":[2,-1,-1],"split_conditions":[4.5654878E-1,-1.541238E-1,5.2082944E0],"split_indices":[306,0,0],"split_type":[0,0,0],"sum_hessian":[9.789738E2,9.518056E2,2.7168211E1],"tree_param":{"num_deleted":"0","num_feature":"512","num_nodes":"3","size_leaf_vector":"0"}},{"base_weights":[-4.8188283E-4,-5.1164716E-1,1.735852E1,-5.137439E-1,1.1620391E-2,7.265803E-1,-3.7731194E-1],"categories":[],"categories_nodes":[],"categories_segments":[],"categories_sizes":[],"default_left":[true,true,false,false,true,false,false],"id":21,"left_children":[1,3,-1,-1,5,-1,-1],"loss_changes":[8.704502E3,1.0514374E0,0E0,0E0,1.6035675E0,0E0,0E0],"parents":[2147483647,0,0,1,1,4,4],"right_children":[2,4,-1,-1,6,-1,-1],"split_conditions":[5.9261227E-1,1.3758911E0,5.2075562E0,-1.5412317E-1,8.773764E-1,2.1797411E-1,-1.1319359E-1],"split_indices":[150,417,0,0,0,0,0],"split_type":[0,0,0,0,0,0,0],"sum_hessian":[9.789738E2,9.519136E2,2.7060186E1,9.4813275E2,3.7808642E0,1.0262346E0,2.7546296E0],"tree_param":{"num_deleted":"0","num_feature":"512","num_nodes":"7","size_leaf_vector":"0"}},{"base_weights":[1.5589881E-3,-5.137458E-1,1.7261559E1],"categories":[],"categories_nodes":[],"categories_segments":[],"categories_sizes":[],"default_left":[true,false,false],"id":22,"left_children":[1,-1,-1],"loss_changes":[8.724912E3,0E0,0E0],"parents":[2147483647,0,0],"right_children":[2,-1,-1],"split_conditions":[6.1868405E-1,-1.5412374E-1,5.1784678E0],"split_indices":[396,0,0],"split_type":[0,0,0],"sum_hessian":[9.789738E2,9.515355E2,2.7438272E1],"tree_param":{"num_deleted":"0","num_feature":"512","num_nodes":"3","size_leaf_vector":"0"}},{"base_weights":[-2.5227538E-3,-5.13746E-1,1.735852E1],"categories":[],"categories_nodes":[],"categories_segments":[],"categories_sizes":[],"default_left":[true,false,false],"id":23,"left_children":[1,-1,-1],"loss_changes":[8.706547E3,0E0,0E0],"parents":[2147483647,0,0],"right_children":[2,-1,-1],"split_conditions":[6.98069E-3,-1.5412381E-1,5.2075562E0],"split_indices":[10,0,0],"split_type":[0,0,0],"sum_hessian":[9.789738E2,9.519136E2,2.7060186E1],"tree_param":{"num_deleted":"0","num_feature":"512","num_nodes":"3","size_leaf_vector":"0"}},{"base_weights":[2.5794236E-3,-4.041507E-1,1.6996902E1,-4.7786364E-1,5.745508E0,-5.0724685E-1,7.1769565E-1,-4.4652298E-1,1.427705E1,-5.137205E-1,-1.20805375E-1,-4.905122E-1,1.0835381E1,-4.8116863E-1,2.7006853E0],"categories":[],"categories_nodes":[],"categories_segments":[],"categories_sizes":[],"default_left":[true,true,false,true,true,true,true,false,false,false,true,false,false,false,false],"id":24,"left_children":[1,3,-1,5,7,9,11,-1,-1,-1,13,-1,-1,-1,-1],"loss_changes":[6.7805493E3,4.3703647E2,0E0,3.365335E1,6.098975E2,2.253189E0,2.8824628E2,0E0,0E0,0E0,1.8132538E1,0E0,0E0,0E0,0E0],"parents":[2147483647,0,0,1,1,3,3,4,4,5,5,6,6,10,10],"right_children":[2,4,-1,6,8,10,12,-1,-1,-1,14,-1,-1,-1,-1],"split_conditions":[2.815912E-6,7.3360074E-1,5.099071E0,6.055429E-1,7.590913E-1,1.106082E0,2.7885127E-1,-1.339569E-1,4.2831154E0,-1.5411615E-1,6.1967593E-1,-1.4715366E-1,3.2506144E0,-1.4435059E-1,8.1020564E-1],"split_indices":[378,245,0,245,168,72,95,0,0,0,2,0,0,0,0],"split_type":[0,0,0,0,0,0,0,0,0,0,0,0,0,0,0],"sum_hessian":[9.789738E2,9.570448E2,2.1929012E1,9.466204E2,1.0424383E1,9.2447534E2,2.2145061E1,6.589506E0,3.8348765E0,9.089198E2,1.5555556E1,2.0632717E1,1.5123457E0,1.4529322E1,1.0262346E0],"tree_param":{"num_deleted":"0","num_feature":"512","num_nodes":"15","size_leaf_vector":"0"}},{"base_weights":[-2.5227538E-3,-5.0324124E-1,1.6447119E1,-5.116415E-1,3.475054E0,1.734593E1,-3.0508474E-1,-5.137434E-1,2.0726305E-1,7.265803E-1,-3.0508474E-1],"categories":[],"categories_nodes":[],"categories_segments":[],"categories_sizes":[],"default_left":[true,true,true,true,false,false,false,false,true,false,false],"id":25,"left_children":[1,3,5,7,-1,-1,-1,-1,9,-1,-1],"loss_changes":[8.0799673E3,3.3592438E1,4.4162158E2,1.5433197E0,0E0,0E0,0E0,0E0,1.1488113E0,0E0,0E0],"parents":[2147483647,0,0,1,1,2,2,3,3,8,8],"right_children":[2,4,6,8,-1,-1,-1,-1,10,-1,-1],"split_conditions":[1.648349E0,1.6312491E0,4.69381E-2,1.5999606E0,1.0425162E0,5.203779E0,-9.152542E-2,-1.5412302E-1,1.1437191E0,2.1797411E-1,-9.152542E-2],"split_indices":[377,377,2,377,0,0,0,0,0,0,0],"split_type":[0,0,0,0,0,0,0,0,0,0,0],"sum_hessian":[9.789738E2,9.509954E2,2.7978395E1,9.4986115E2,1.1342593E0,2.6520061E1,1.4583334E0,9.473766E2,2.4845679E0,1.0262346E0,1.4583334E0],"tree_param":{"num_deleted":"0","num_feature":"512","num_nodes":"11","size_leaf_vector":"0"}},{"base_weights":[1.5589881E-3,-4.0583917E-1,1.0796262E1,-4.5115432E-1,1.1597938E1,-4.7731054E-1,1.7209381E1,-5.0398606E-1,2.0167015E0,-5.1261026E-1,-1.0749835E-1,-4.8448536E-1,1.3135946E1,-5.1371294E-1,-2.961316E-1,-4.8844782E-1,3.687738E0,-4.273415E-1,2.3305406E-1],"categories":[],"categories_nodes":[],"categories_segments":[],"categories_sizes":[],"default_left":[true,true,true,true,false,false,false,true,true,true,true,false,false,false,true,false,false,false,false],"id":26,"left_children":[1,3,5,7,-1,-1,-1,9,11,13,15,-1,-1,-1,17,-1,-1,-1,-1],"loss_changes":[4.3140537E3,5.194302E2,2.5875396E3,1.2392728E2,0E0,0E0,0E0,3.1035614E0,5.614315E2,6.361389E-2,3.2062527E1,0E0,0E0,0E0,5.815627E-1,0E0,0E0,0E0,0E0],"parents":[2147483647,0,0,1,1,2,2,3,3,7,7,8,8,9,9,10,10,14,14],"right_children":[2,4,6,8,-1,-1,-1,10,12,14,16,-1,-1,-1,18,-1,-1,-1,-1],"split_conditions":[3.959751E-1,9.556639E0,1.2805347E-1,3.6766195E-1,3.4793813E0,-1.4319317E-1,5.1628146E0,3.3814397E-1,1.5662467E-1,3.2625616E-1,7.774104E-2,-1.4534561E-1,3.940784E0,-1.5411389E-1,6.416415E-1,-1.4653435E-1,1.1063215E0,-1.2820245E-1,6.991622E-2],"split_indices":[121,155,15,121,0,0,0,121,15,121,15,0,0,0,6,0,0,0,0],"split_type":[0,0,0,0,0,0,0,0,0,0,0,0,0,0,0,0,0,0,0],"sum_hessian":[9.789738E2,9.4429785E2,3.4675926E1,9.4170526E2,2.5925927E0,1.2908951E1,2.1766975E1,9.2274695E2,1.8958334E1,9.028164E2,1.9930555E1,1.6257717E1,2.7006173E0,8.96875E2,5.941358E0,1.8904322E1,1.0262346E0,4.9151235E0,1.0262346E0],"tree_param":{"num_deleted":"0","num_feature":"512","num_nodes":"19","size_leaf_vector":"0"}},{"base_weights":[-4.8188283E-4,-4.0151104E-1,1.0380662E1,-4.9726787E-1,2.1900766E0,-4.800985E-1,1.7197964E1,-5.1371324E-1,5.7573456E-1,-4.9650535E-1,1.4956952E1,-4.753447E-1,7.1424217E0],"categories":[],"categories_nodes":[],"categories_segments":[],"categories_sizes":[],"default_left":[true,true,true,true,true,false,false,false,true,false,false,false,false],"id":27,"left_children":[1,3,5,7,9,-1,-1,-1,11,-1,-1,-1,-1],"loss_changes":[4.0839375E3,2.354752E2,2.709728E3,1.638266E1,1.1680962E3,0E0,0E0,0E0,1.01632996E2,0E0,0E0,0E0,0E0],"parents":[2147483647,0,0,1,1,2,2,3,3,4,4,8,8],"right_children":[2,4,6,8,10,-1,-1,-1,12,-1,-1,-1,-1],"split_conditions":[8.755026E-1,8.1859267E-1,5.335272E-1,7.7896154E-1,4.7437268E-1,-1.4402956E-1,5.1593895E0,-1.5411398E-1,3.812222E-1,-1.489516E-1,4.487086E0,-1.4260341E-1,2.1427267E0],"split_indices":[64,64,50,64,0,0,0,0,0,0,0,0,0],"split_type":[0,0,0,0,0,0,0,0,0,0,0,0,0],"sum_hessian":[9.789738E2,9.434877E2,3.548611E1,9.106482E2,3.2839508E1,1.404321E1,2.1442902E1,8.9741516E2,1.3233025E1,2.7924383E1,4.9151235E0,1.220679E1,1.0262346E0],"tree_param":{"num_deleted":"0","num_feature":"512","num_nodes":"13","size_leaf_vector":"0"}},{"base_weights":[5.3855265E-4,-5.032205E-1,1.5561831E1,-5.116365E-1,3.475054E0,-3.8819522E-1,1.734976E1,-5.137432E-1,7.265803E-1],"categories":[],"categories_nodes":[],"categories_segments":[],"categories_sizes":[],"default_left":[true,true,true,true,false,false,false,false,false],"id":28,"left_children":[1,3,5,7,-1,-1,-1,-1,-1],"loss_changes":[7.689985E3,3.359221E1,8.8395605E2,2.8490143E0,0E0,0E0,0E0,0E0,0E0],"parents":[2147483647,0,0,1,1,2,2,3,3],"right_children":[2,4,6,8,-1,-1,-1,-1,-1],"split_conditions":[2.207984E0,8.883593E-2,2.926699E-1,1.7409599E0,1.0425162E0,-1.1645857E-1,5.2049284E0,-1.5412298E-1,2.1797411E-1],"split_indices":[309,393,4,58,0,0,0,0,0],"split_type":[0,0,0,0,0,0,0,0,0],"sum_hessian":[9.789738E2,9.49213E2,2.9760803E1,9.4807874E2,1.1342593E0,3.0787039E0,2.66821E1,9.470525E2,1.0262346E0],"tree_param":{"num_deleted":"0","num_feature":"512","num_nodes":"9","size_leaf_vector":"0"}},{"base_weights":[-1.5023183E-3,-5.1374596E-1,1.7359753E1],"categories":[],"categories_nodes":[],"categories_segments":[],"categories_sizes":[],"default_left":[true,false,false],"id":29,"left_children":[1,-1,-1],"loss_changes":[8.724016E3,0E0,0E0],"parents":[2147483647,0,0],"right_children":[2,-1,-1],"split_conditions":[1.2175826E0,-1.541238E-1,5.207926E0],"split_indices":[296,0,0],"split_type":[0,0,0],"sum_hessian":[9.789738E2,9.518596E2,2.7114199E1],"tree_param":{"num_deleted":"0","num_feature":"512","num_nodes":"3","size_leaf_vector":"0"}},{"base_weights":[-1.5023183E-3,-5.1374596E-1,1.7359753E1],"categories":[],"categories_nodes":[],"categories_segments":[],"categories_sizes":[],"default_left":[true,false,false],"id":30,"left_children":[1,-1,-1],"loss_changes":[8.724016E3,0E0,0E0],"parents":[2147483647,0,0],"right_children":[2,-1,-1],"split_conditions":[8.1385684E-1,-1.541238E-1,5.207926E0],"split_indices":[479,0,0],"split_type":[0,0,0],"sum_hessian":[9.789738E2,9.518596E2,2.7114199E1],"tree_param":{"num_deleted":"0","num_feature":"512","num_nodes":"3","size_leaf_vector":"0"}},{"base_weights":[3.5998588E-3,-5.1374584E-1,1.7365845E1],"categories":[],"categories_nodes":[],"categories_segments":[],"categories_sizes":[],"default_left":[true,false,false],"id":31,"left_children":[1,-1,-1],"loss_changes":[8.811323E3,0E0,0E0],"parents":[2147483647,0,0],"right_children":[2,-1,-1],"split_conditions":[8.483563E-1,-1.5412375E-1,5.2097535E0],"split_indices":[169,0,0],"split_type":[0,0,0],"sum_hessian":[9.789738E2,9.5158954E2,2.738426E1],"tree_param":{"num_deleted":"0","num_feature":"512","num_nodes":"3","size_leaf_vector":"0"}},{"base_weights":[5.3855265E-4,-5.137459E-1,1.7362204E1],"categories":[],"categories_nodes":[],"categories_segments":[],"categories_sizes":[],"default_left":[true,false,false],"id":32,"left_children":[1,-1,-1],"loss_changes":[8.758943E3,0E0,0E0],"parents":[2147483647,0,0],"right_children":[2,-1,-1],"split_conditions":[7.9188955E-1,-1.5412378E-1,5.208661E0],"split_indices":[45,0,0],"split_type":[0,0,0],"sum_hessian":[9.789738E2,9.517516E2,2.7222223E1],"tree_param":{"num_deleted":"0","num_feature":"512","num_nodes":"3","size_leaf_vector":"0"}},{"base_weights":[-1.5023183E-3,-5.1374596E-1,1.7359753E1],"categories":[],"categories_nodes":[],"categories_segments":[],"categories_sizes":[],"default_left":[true,false,false],"id":33,"left_children":[1,-1,-1],"loss_changes":[8.724016E3,0E0,0E0],"parents":[2147483647,0,0],"right_children":[2,-1,-1],"split_conditions":[1.7002594E0,-1.541238E-1,5.207926E0],"split_indices":[430,0,0],"split_type":[0,0,0],"sum_hessian":[9.789738E2,9.518596E2,2.7114199E1],"tree_param":{"num_deleted":"0","num_feature":"512","num_nodes":"3","size_leaf_vector":"0"}},{"base_weights":[-1.5023183E-3,-5.1374596E-1,1.7359753E1],"categories":[],"categories_nodes":[],"categories_segments":[],"categories_sizes":[],"default_left":[true,false,false],"id":34,"left_children":[1,-1,-1],"loss_changes":[8.724016E3,0E0,0E0],"parents":[2147483647,0,0],"right_children":[2,-1,-1],"split_conditions":[2.2936044E0,-1.541238E-1,5.207926E0],"split_indices":[0,0,0],"split_type":[0,0,0],"sum_hessian":[9.789738E2,9.518596E2,2.7114199E1],"tree_param":{"num_deleted":"0","num_feature":"512","num_nodes":"3","size_leaf_vector":"0"}},{"base_weights":[1.5589881E-3,-5.137459E-1,1.7363422E1],"categories":[],"categories_nodes":[],"categories_segments":[],"categories_sizes":[],"default_left":[true,false,false],"id":35,"left_children":[1,-1,-1],"loss_changes":[8.776406E3,0E0,0E0],"parents":[2147483647,0,0],"right_children":[2,-1,-1],"split_conditions":[6.333984E-1,-1.5412378E-1,5.209027E0],"split_indices":[429,0,0],"split_type":[0,0,0],"sum_hessian":[9.789738E2,9.516976E2,2.7276236E1],"tree_param":{"num_deleted":"0","num_feature":"512","num_nodes":"3","size_leaf_vector":"0"}},{"base_weights":[-2.1644935E-2,-4.9972188E-1,5.885829E-1],"categories":[],"categories_nodes":[],"categories_segments":[],"categories_sizes":[],"default_left":[true,false,false],"id":36,"left_children":[1,-1,-1],"loss_changes":[8.172041E1,0E0,0E0],"parents":[2147483647,0,0],"right_children":[2,-1,-1],"split_conditions":[1.5074023E0,-1.4991657E-1,1.7657487E-1],"split_indices":[471,0,0],"split_type":[0,0,0],"sum_hessian":[2.7810962E2,1.5604152E2,1.2206811E2],"tree_param":{"num_deleted":"0","num_feature":"512","num_nodes":"3","size_leaf_vector":"0"}},{"base_weights":[5.8792327E-2,-4.995183E-1,6.4868194E-1,-4.533591E-1,7.312843E-1,1.8901407E0,5.845825E-1,2.5215619E0,1.3192555E0],"categories":[],"categories_nodes":[],"categories_segments":[],"categories_sizes":[],"default_left":[true,false,true,false,true,true,false,false,false],"id":37,"left_children":[1,-1,3,-1,5,7,-1,-1,-1],"loss_changes":[9.4196754E1,0E0,1.2987713E1,0E0,2.0948204E1,1.766285E0,0E0,0E0,0E0],"parents":[2147483647,0,0,2,2,4,4,5,5],"right_children":[2,-1,4,-1,6,8,-1,-1,-1],"split_conditions":[8.272388E-1,-1.498555E-1,5.668609E-1,-1.3600774E-1,8.916426E-1,8.5655E-1,1.7537476E-1,7.564686E-1,3.9577666E-1],"split_indices":[256,0,50,0,326,326,0,0,0],"split_type":[0,0,0,0,0,0,0,0,0],"sum_hessian":[2.8403146E2,1.4600029E2,1.3803116E2,9.311623E0,1.2871954E2,1.312845E1,1.1559109E2,4.6112714E0,8.5171795E0],"tree_param":{"num_deleted":"0","num_feature":"512","num_nodes":"9","size_leaf_vector":"0"}},{"base_weights":[-2.601955E-2,-4.9972543E-1,5.773586E-1],"categories":[],"categories_nodes":[],"categories_segments":[],"categories_sizes":[],"default_left":[true,false,false],"id":38,"left_children":[1,-1,-1],"loss_changes":[8.0140465E1,0E0,0E0],"parents":[2147483647,0,0],"right_children":[2,-1,-1],"split_conditions":[4.4274452E-1,-1.4991763E-1,1.7320758E-1],"split_indices":[386,0,0],"split_type":[0,0,0],"sum_hessian":[2.7837473E2,1.5604063E2,1.2233409E2],"tree_param":{"num_deleted":"0","num_feature":"512","num_nodes":"3","size_leaf_vector":"0"}},{"base_weights":[-2.7311984E-2,-4.9972567E-1,5.774579E-1],"categories":[],"categories_nodes":[],"categories_segments":[],"categories_sizes":[],"default_left":[true,false,false],"id":39,"left_children":[1,-1,-1],"loss_changes":[7.9940445E1,0E0,0E0],"parents":[2147483647,0,0],"right_children":[2,-1,-1],"split_conditions":[1.9019082E0,-1.499177E-1,1.7323738E-1],"split_indices":[2,0,0],"split_type":[0,0,0],"sum_hessian":[2.7779395E2,1.560611E2,1.21732834E2],"tree_param":{"num_deleted":"0","num_feature":"512","num_nodes":"3","size_leaf_vector":"0"}},{"base_weights":[-2.735647E-2,-4.9972567E-1,5.7743835E-1],"categories":[],"categories_nodes":[],"categories_segments":[],"categories_sizes":[],"default_left":[true,false,false],"id":40,"left_children":[1,-1,-1],"loss_changes":[7.993143E1,0E0,0E0],"parents":[2147483647,0,0],"right_children":[2,-1,-1],"split_conditions":[1.155369E-1,-1.499177E-1,1.7323151E-1],"split_indices":[119,0,0],"split_type":[0,0,0],"sum_hessian":[2.777772E2,1.5606099E2,1.2171622E2],"tree_param":{"num_deleted":"0","num_feature":"512","num_nodes":"3","size_leaf_vector":"0"}},{"base_weights":[1.1847888E-2,-5.0851804E-1,6.4082783E-1,1.9254524E0,5.8417255E-1,3.296012E0,-3.2511723E-1],"categories":[],"categories_nodes":[],"categories_segments":[],"categories_sizes":[],"default_left":[true,false,true,true,false,false,false],"id":41,"left_children":[1,-1,3,5,-1,-1,-1],"loss_changes":[9.4609406E1,0E0,8.399567E0,1.6778418E1,0E0,0E0,0E0],"parents":[2147483647,0,0,2,2,3,3],"right_children":[2,-1,4,6,-1,-1,-1],"split_conditions":[3.5057348E-1,-1.5255542E-1,8.368145E-1,3.4355947E-1,1.7525177E-1,9.888036E-1,-9.753517E-2],"split_indices":[98,0,413,0,0,0,0],"split_type":[0,0,0,0,0,0,0],"sum_hessian":[2.870648E2,1.5720111E2,1.2986366E2,4.092114E0,1.2577155E2,2.2545855E0,1.8375286E0],"tree_param":{"num_deleted":"0","num_feature":"512","num_nodes":"7","size_leaf_vector":"0"}},{"base_weights":[3.440444E-2,-4.9959725E-1,6.036541E-1,-4.2148206E-1,6.452711E-1,2.6751273E0,6.075753E-1],"categories":[],"categories_nodes":[],"categories_segments":[],"categories_sizes":[],"default_left":[true,false,true,false,true,false,false],"id":42,"left_children":[1,-1,3,-1,5,-1,-1],"loss_changes":[8.911377E1,0E0,6.324497E0,0E0,8.836716E0,0E0,0E0],"parents":[2147483647,0,0,2,2,4,4],"right_children":[2,-1,4,-1,6,-1,-1],"split_conditions":[3.083285E-1,-1.4987919E-1,1.0981965E0,-1.2644462E-1,3.4932506E-1,8.025382E-1,1.822726E-1],"split_indices":[200,0,392,0,200,0,0],"split_type":[0,0,0,0,0,0,0],"sum_hessian":[2.911643E2,1.5029651E2,1.4086778E2,5.1395535E0,1.3572823E2,1.1989846E0,1.3452925E2],"tree_param":{"num_deleted":"0","num_feature":"512","num_nodes":"7","size_leaf_vector":"0"}},{"base_weights":[3.8137134E-2,-4.996442E-1,7.035109E-1,2.8487425E0,5.7237625E-1,-3.2579705E-1,4.063596E0,-8.979894E-3,5.778364E-1],"categories":[],"categories_nodes":[],"categories_segments":[],"categories_sizes":[],"default_left":[true,false,true,true,true,false,false,false,false],"id":43,"left_children":[1,-1,3,5,7,-1,-1,-1,-1],"loss_changes":[9.9912544E1,0E0,3.3472233E1,2.8076527E1,3.8243484E-1,0E0,0E0,0E0,0E0],"parents":[2147483647,0,0,2,2,3,3,4,4],"right_children":[2,-1,4,6,8,-1,-1,-1,-1],"split_conditions":[3.8103825E-1,-1.4989327E-1,4.5688224E-1,1.2138465E-1,1.4756092E-1,-9.773912E-2,1.2190788E0,-2.6939684E-3,1.7335093E-1],"split_indices":[498,0,498,26,26,0,0,0,0],"split_type":[0,0,0,0,0,0,0,0,0],"sum_hessian":[2.77239E2,1.5345761E2,1.2378142E2,5.936841E0,1.17844574E2,1.845687E0,4.091154E0,1.0905114E0,1.1675407E2],"tree_param":{"num_deleted":"0","num_feature":"512","num_nodes":"9","size_leaf_vector":"0"}},{"base_weights":[-2.7661761E-2,-4.9972576E-1,5.7753956E-1],"categories":[],"categories_nodes":[],"categories_segments":[],"categories_sizes":[],"default_left":[true,false,false],"id":44,"left_children":[1,-1,-1],"loss_changes":[7.989111E1,0E0,0E0],"parents":[2147483647,0,0],"right_children":[2,-1,-1],"split_conditions":[1.2842534E0,-1.4991774E-1,1.7326188E-1],"split_indices":[18,0,0],"split_type":[0,0,0],"sum_hessian":[2.7762878E2,1.5606813E2,1.21560646E2],"tree_param":{"num_deleted":"0","num_feature":"512","num_nodes":"3","size_leaf_vector":"0"}},{"base_weights":[4.359652E-3,-4.996619E-1,6.363831E-1,2.4254696E0,5.739359E-1,6.568323E-1,2.9150748E0,1.03616595E-1,5.7750326E-1],"categories":[],"categories_nodes":[],"categories_segments":[],"categories_sizes":[],"default_left":[true,false,true,true,true,false,false,false,false],"id":45,"left_children":[1,-1,3,5,7,-1,-1,-1,-1],"loss_changes":[8.920523E1,0E0,1.2488117E1,1.4452782E0,1.4377213E-1,0E0,0E0,0E0,0E0],"parents":[2147483647,0,0,2,2,3,3,4,4],"right_children":[2,-1,4,6,8,-1,-1,-1,-1],"split_conditions":[6.505504E-1,-1.4989857E-1,6.7342794E-1,8.692235E-1,3.492931E-1,1.9704969E-1,8.745225E-1,3.1084979E-2,1.7325099E-1],"split_indices":[327,0,327,12,15,0,0,0,0],"split_type":[0,0,0,0,0,0,0,0,0],"sum_hessian":[2.7803403E2,1.5479703E2,1.2323701E2,2.8801959E0,1.2035681E2,1.1321175E0,1.7480783E0,1.1322044E0,1.1922461E2],"tree_param":{"num_deleted":"0","num_feature":"512","num_nodes":"9","size_leaf_vector":"0"}},{"base_weights":[-2.6639951E-2,-4.997255E-1,5.773168E-1],"categories":[],"categories_nodes":[],"categories_segments":[],"categories_sizes":[],"default_left":[true,false,false],"id":46,"left_children":[1,-1,-1],"loss_changes":[8.003602E1,0E0,0E0],"parents":[2147483647,0,0],"right_children":[2,-1,-1],"split_conditions":[2.4806418E0,-1.4991765E-1,1.7319505E-1],"split_indices":[307,0,0],"split_type":[0,0,0],"sum_hessian":[2.781076E2,1.5604698E2,1.2206062E2],"tree_param":{"num_deleted":"0","num_feature":"512","num_nodes":"3","size_leaf_vector":"0"}},{"base_weights":[-2.712064E-2,-4.9972558E-1,5.773297E-1],"categories":[],"categories_nodes":[],"categories_segments":[],"categories_sizes":[],"default_left":[true,false,false],"id":47,"left_children":[1,-1,-1],"loss_changes":[7.995937E1,0E0,0E0],"parents":[2147483647,0,0],"right_children":[2,-1,-1],"split_conditions":[1.2669022E0,-1.4991768E-1,1.7319891E-1],"split_indices":[504,0,0],"split_type":[0,0,0],"sum_hessian":[2.77895E2,1.5605368E2,1.218413E2],"tree_param":{"num_deleted":"0","num_feature":"512","num_nodes":"3","size_leaf_vector":"0"}},{"base_weights":[9.6307814E-2,-4.6956307E-1,7.557843E-1,-4.9954364E-1,7.3248905E-1,1.3075979E0,6.3272226E-1,1.0665689E0,2.6737133E-1,-4.1908503E-1,1.728615E0,2.9539406E0,5.81381E-1,3.9435632E0,1.1970109E0],"categories":[],"categories_nodes":[],"categories_segments":[],"categories_sizes":[],"default_left":[true,true,true,false,true,true,true,false,false,false,true,false,false,false,false],"id":48,"left_children":[1,3,5,-1,7,9,11,-1,-1,-1,13,-1,-1,-1,-1],"loss_changes":[1.077312E2,5.968918E0,8.2219925E0,0E0,3.657136E-1,1.7707867E1,1.1498833E1,0E0,0E0,0E0,1.7625141E1,0E0,0E0,0E0,0E0],"parents":[2147483647,0,0,1,1,2,2,4,4,5,5,6,6,10,10],"right_children":[2,4,6,-1,8,10,12,-1,-1,-1,14,-1,-1,-1,-1],"split_conditions":[1.3394058E-1,8.685187E-1,5.2615297E-1,-1.498631E-1,1.5208739E-1,7.7363014E-2,1.033581E0,3.1997067E-1,8.02114E-2,-1.2572551E-1,3.1509697E-1,8.8618225E-1,1.744143E-1,1.183069E0,3.5910326E-1],"split_indices":[235,472,462,0,505,367,0,0,0,0,235,0,0,0,0],"split_type":[0,0,0,0,0,0,0,0,0,0,0,0,0,0,0],"sum_hessian":[2.8673444E2,1.5447418E2,1.3226027E2,1.5128537E2,3.1888065E0,2.2362158E1,1.098981E2,1.1032559E0,2.0855505E0,4.3845906E0,1.7977568E1,1.1547471E0,1.08743355E2,2.2373471E0,1.574022E1],"tree_param":{"num_deleted":"0","num_feature":"512","num_nodes":"15","size_leaf_vector":"0"}},{"base_weights":[-2.2632454E-3,-5.024247E-1,6.178333E-1,1.550256E0,5.974718E-1],"categories":[],"categories_nodes":[],"categories_segments":[],"categories_sizes":[],"default_left":[true,false,true,false,false],"id":49,"left_children":[1,-1,3,-1,-1],"loss_changes":[8.8443245E1,0E0,1.490982E0,0E0,0E0],"parents":[2147483647,0,0,2,2],"right_children":[2,-1,4,-1,-1],"split_conditions":[5.590235E-1,-1.5072742E-1,5.195433E-1,4.6507683E-1,1.7924154E-1],"split_indices":[97,0,194,0,0],"split_type":[0,0,0,0,0],"sum_hessian":[2.8316342E2,1.5684453E2,1.263189E2,1.0937964E0,1.25225105E2],"tree_param":{"num_deleted":"0","num_feature":"512","num_nodes":"5","size_leaf_vector":"0"}},{"base_weights":[5.2842684E-3,-5.036214E-1,6.252732E-1,1.7294922E0,5.829852E-1,-3.2594824E-1,3.437475E0],"categories":[],"categories_nodes":[],"categories_segments":[],"categories_sizes":[],"default_left":[true,false,true,true,false,false,false],"id":50,"left_children":[1,-1,3,5,-1,-1,-1],"loss_changes":[8.986845E1,0E0,4.9872932E0,1.5961257E1,0E0,0E0,0E0],"parents":[2147483647,0,0,2,2,3,3],"right_children":[2,-1,4,6,-1,-1,-1],"split_conditions":[1.4369112E0,-1.5108642E-1,7.875725E-1,5.449815E-1,1.7489557E-1,-9.7784474E-2,1.0312425E0],"split_indices":[156,0,253,26,0,0,0],"split_type":[0,0,0,0,0,0,0],"sum_hessian":[2.8283212E2,1.554345E2,1.2739763E2,3.227362E0,1.24170265E2,1.8319261E0,1.3954358E0],"tree_param":{"num_deleted":"0","num_feature":"512","num_nodes":"7","size_leaf_vector":"0"}},{"base_weights":[-2.380004E-2,-4.9972597E-1,5.8324695E-1],"categories":[],"categories_nodes":[],"categories_segments":[],"categories_sizes":[],"default_left":[true,false,false],"id":51,"left_children":[1,-1,-1],"loss_changes":[8.097426E1,0E0,0E0],"parents":[2147483647,0,0],"right_children":[2,-1,-1],"split_conditions":[1.4513943E-1,-1.499178E-1,1.7497408E-1],"split_indices":[162,0,0],"split_type":[0,0,0],"sum_hessian":[2.7826675E2,1.5607806E2,1.221887E2],"tree_param":{"num_deleted":"0","num_feature":"512","num_nodes":"3","size_leaf_vector":"0"}},{"base_weights":[-1.4411866E-2,-4.9973157E-1,6.048056E-1,5.758393E-1,1.9803172E0],"categories":[],"categories_nodes":[],"categories_segments":[],"categories_sizes":[],"default_left":[true,false,true,false,false],"id":52,"left_children":[1,-1,3,-1,-1],"loss_changes":[8.413196E1,0E0,3.7611923E0,0E0,0E0],"parents":[2147483647,0,0,2,2],"right_children":[2,-1,4,-1,-1],"split_conditions":[2.0287624E-1,-1.4991948E-1,8.474531E-1,1.7275178E-1,5.940952E-1],"split_indices":[490,0,123,0,0],"split_type":[0,0,0,0,0],"sum_hessian":[2.7795038E2,1.5593066E2,1.22019714E2,1.20892525E2,1.127186E0],"tree_param":{"num_deleted":"0","num_feature":"512","num_nodes":"5","size_leaf_vector":"0"}},{"base_weights":[-2.4085911E-2,5.671243E-1,-4.9965706E-1,-2.902237E-1,5.7867014E-1],"categories":[],"categories_nodes":[],"categories_segments":[],"categories_sizes":[],"default_left":[true,true,false,false,false],"id":53,"left_children":[1,3,-1,-1,-1],"loss_changes":[7.903468E1,1.4085884E0,0E0,0E0,0E0],"parents":[2147483647,0,0,1,1],"right_children":[2,4,-1,-1,-1],"split_conditions":[1.7171049E-5,8.589089E-1,-1.4989713E-1,-8.706711E-2,1.7360105E-1],"split_indices":[326,26,0,0,0],"split_type":[0,0,0,0,0],"sum_hessian":[2.7909177E2,1.243333E2,1.5475848E2,1.3314087E0,1.2300189E2],"tree_param":{"num_deleted":"0","num_feature":"512","num_nodes":"5","size_leaf_vector":"0"}},{"base_weights":[-2.7479758E-2,5.773888E-1,-4.9972567E-1],"categories":[],"categories_nodes":[],"categories_segments":[],"categories_sizes":[],"default_left":[true,false,false],"id":54,"left_children":[1,-1,-1],"loss_changes":[7.9906815E1,0E0,0E0],"parents":[2147483647,0,0],"right_children":[2,-1,-1],"split_conditions":[6.958107E-1,1.7321666E-1,-1.499177E-1],"split_indices":[113,0,0],"split_type":[0,0,0],"sum_hessian":[2.7772986E2,1.2166919E2,1.5606068E2],"tree_param":{"num_deleted":"0","num_feature":"512","num_nodes":"3","size_leaf_vector":"0"}},{"base_weights":[6.074241E-2,-4.9973908E-1,6.9994617E-1,1.703769E0,5.561767E-1,2.3128731E0,-3.9071727E-1,5.782484E-1,-3.5448405E-1,4.246593E0,1.6917572E0],"categories":[],"categories_nodes":[],"categories_segments":[],"categories_sizes":[],"default_left":[true,false,true,true,true,true,false,false,false,false,false],"id":55,"left_children":[1,-1,3,5,7,9,-1,-1,-1,-1,-1],"loss_changes":[1.0174178E2,0E0,1.8194374E1,2.1484173E1,2.5667915E0,7.9996796E0,0E0,0E0,0E0,0E0,0E0],"parents":[2147483647,0,0,2,2,3,3,4,4,5,5],"right_children":[2,-1,4,6,8,10,-1,-1,-1,-1,-1],"split_conditions":[4.1765308E-1,-1.4992173E-1,5.3168374E-1,6.604161E-1,6.2950104E-1,8.976296E-1,-1.1721519E-1,1.7347452E-1,-1.0634522E-1,1.273978E0,5.075272E-1],"split_indices":[52,0,52,26,0,500,0,0,0,0,0],"split_type":[0,0,0,0,0,0,0,0,0,0,0],"sum_hessian":[2.8201083E2,1.5037431E2,1.3163652E2,1.5131946E1,1.1650457E2,1.1642024E1,3.4899209E0,1.14104065E2,2.4005084E0,1.411272E0,1.0230752E1],"tree_param":{"num_deleted":"0","num_feature":"512","num_nodes":"11","size_leaf_vector":"0"}},{"base_weights":[-2.6935747E-2,-4.9972558E-1,5.7739955E-1],"categories":[],"categories_nodes":[],"categories_segments":[],"categories_sizes":[],"default_left":[true,false,false],"id":56,"left_children":[1,-1,-1],"loss_changes":[7.999597E1,0E0,0E0],"parents":[2147483647,0,0],"right_children":[2,-1,-1],"split_conditions":[4.5654878E-1,-1.4991768E-1,1.7321987E-1],"split_indices":[306,0,0],"split_type":[0,0,0],"sum_hessian":[2.7796692E2,1.5605414E2,1.2191279E2],"tree_param":{"num_deleted":"0","num_feature":"512","num_nodes":"3","size_leaf_vector":"0"}},{"base_weights":[-2.0392649E-2,-4.8511583E-1,5.834702E-1,-4.997181E-1,7.2790873E-1],"categories":[],"categories_nodes":[],"categories_segments":[],"categories_sizes":[],"default_left":[true,true,false,false,false],"id":57,"left_children":[1,3,-1,-1,-1],"loss_changes":[7.854904E1,3.1650658E0,0E0,0E0,0E0],"parents":[2147483647,0,0,1,1],"right_children":[2,4,-1,-1,-1],"split_conditions":[7.053059E-1,6.935281E-2,1.7504108E-1,-1.4991544E-1,2.1837263E-1],"split_indices":[59,196,0,0,0],"split_type":[0,0,0,0,0],"sum_hessian":[2.778948E2,1.5715076E2,1.2074406E2,1.5586253E2,1.288221E0],"tree_param":{"num_deleted":"0","num_feature":"512","num_nodes":"5","size_leaf_vector":"0"}},{"base_weights":[-2.3801448E-2,-5.0370324E-1,5.7939667E-1],"categories":[],"categories_nodes":[],"categories_segments":[],"categories_sizes":[],"default_left":[true,false,false],"id":58,"left_children":[1,-1,-1],"loss_changes":[8.23209E1,0E0,0E0],"parents":[2147483647,0,0],"right_children":[2,-1,-1],"split_conditions":[1.2621145E0,-1.5111098E-1,1.73819E-1],"split_indices":[381,0,0],"split_type":[0,0,0],"sum_hessian":[2.8237097E2,1.5734941E2,1.2502156E2],"tree_param":{"num_deleted":"0","num_feature":"512","num_nodes":"3","size_leaf_vector":"0"}},{"base_weights":[-2.7777532E-2,-4.9972576E-1,5.7747793E-1],"categories":[],"categories_nodes":[],"categories_segments":[],"categories_sizes":[],"default_left":[true,false,false],"id":59,"left_children":[1,-1,-1],"loss_changes":[7.986687E1,0E0,0E0],"parents":[2147483647,0,0],"right_children":[2,-1,-1],"split_conditions":[6.98069E-3,-1.4991774E-1,1.7324339E-1],"split_indices":[10,0,0],"split_type":[0,0,0],"sum_hessian":[2.7758746E2,1.5606784E2,1.21519615E2],"tree_param":{"num_deleted":"0","num_feature":"512","num_nodes":"3","size_leaf_vector":"0"}},{"base_weights":[7.633096E-2,-5.040838E-1,6.304268E-1,-5.0600535E-1,-1.0882362E-1,-4.4676486E-1,6.899263E-1,6.4621013E-1,1.4914525E0,7.859134E-1,5.858699E-1,2.559724E0,7.95914E-1,9.857229E-1,6.834263E-1],"categories":[],"categories_nodes":[],"categories_segments":[],"categories_sizes":[],"default_left":[true,true,true,false,false,false,true,true,true,true,false,false,false,false,false],"id":60,"left_children":[1,3,5,-1,-1,-1,7,9,11,13,-1,-1,-1,-1,-1],"loss_changes":[9.91152E1,5.93071E-2,1.0409702E1,0E0,0E0,0E0,4.2834473E0,7.51503E-1,3.1494713E0,1.5440941E-1,0E0,0E0,0E0,0E0,0E0],"parents":[2147483647,0,0,1,1,2,2,6,6,7,7,8,8,9,9],"right_children":[2,4,6,-1,-1,-1,8,10,12,14,-1,-1,-1,-1,-1],"split_conditions":[5.136901E-1,4.662974E-1,8.029959E-1,-1.5180162E-1,-3.264709E-2,-1.3402946E-1,1.1014669E0,2.815912E-6,5.995448E-1,7.3060393E-1,1.7576098E-1,7.679173E-1,2.3877421E-1,2.9571688E-1,2.0502791E-1],"split_indices":[245,245,482,0,0,0,72,378,245,245,0,0,0,0,0],"split_type":[0,0,0,0,0,0,0,0,0,0,0,0,0,0,0],"sum_hessian":[3.0620068E2,1.4959273E2,1.5660794E2,1.485902E2,1.0025247E0,7.856868E0,1.4875108E2,1.4277043E2,5.980651E0,3.943755E1,1.0333288E2,1.3014934E0,4.6791573E0,1.0448693E1,2.8988857E1],"tree_param":{"num_deleted":"0","num_feature":"512","num_nodes":"15","size_leaf_vector":"0"}},{"base_weights":[3.034307E-3,-4.9966252E-1,6.3723636E-1,2.8129206E0,5.7554084E-1,7.1016276E-1,3.526569E0,1.0865015E-1,5.7896507E-1],"categories":[],"categories_nodes":[],"categories_segments":[],"categories_sizes":[],"default_left":[true,false,true,true,true,false,false,false,false],"id":61,"left_children":[1,-1,3,5,7,-1,-1,-1,-1],"loss_changes":[8.907313E1,0E0,1.4963142E1,2.221384E0,1.3116074E-1,0E0,0E0,0E0,0E0],"parents":[2147483647,0,0,2,2,3,3,4,4],"right_children":[2,-1,4,6,8,-1,-1,-1,-1],"split_conditions":[1.5999606E0,-1.4989877E-1,1.6450644E0,1.3856524E0,4.8391718E-1,2.1304883E-1,1.0579708E0,3.2595046E-2,1.7368953E-1],"split_indices":[377,0,377,186,64,0,0,0,0],"split_type":[0,0,0,0,0,0,0,0,0],"sum_hessian":[2.773926E2,1.5485765E2,1.2253495E2,2.1492257E0,1.2038573E2,1.0501335E0,1.0990921E0,1.1147907E0,1.19270935E2],"tree_param":{"num_deleted":"0","num_feature":"512","num_nodes":"9","size_leaf_vector":"0"}},{"base_weights":[9.235782E-2,-4.961409E-1,6.655012E-1,-5.0011617E-1,-1.21609606E-1,7.187681E-1,-4.3730417E-1,1.3745407E0,6.43103E-1,3.4343672E0,8.882781E-1,8.1643075E-1,5.8013326E-1],"categories":[],"categories_nodes":[],"categories_segments":[],"categories_sizes":[],"default_left":[true,true,true,false,false,true,false,true,true,false,false,false,false],"id":62,"left_children":[1,3,5,-1,-1,7,-1,9,11,-1,-1,-1,-1],"loss_changes":[1.0272718E2,1.6304398E-1,9.373993E0,0E0,0E0,6.4347305E0,0E0,1.1351545E1,9.901886E-1,0E0,0E0,0E0,0E0],"parents":[2147483647,0,0,1,1,2,2,5,5,7,7,8,8],"right_children":[2,4,6,-1,-1,8,-1,10,12,-1,-1,-1,-1],"split_conditions":[8.331656E-1,8.0814326E-1,5.2033037E-2,-1.5003486E-1,-3.648288E-2,3.67093E-1,-1.3119125E-1,9.554237E0,3.9575237E-1,1.0303102E0,2.6648346E-1,2.4492924E-1,1.7403999E-1],"split_indices":[476,476,42,0,0,121,0,155,121,0,0,0,0],"split_type":[0,0,0,0,0,0,0,0,0,0,0,0,0],"sum_hessian":[3.025837E2,1.4935826E2,1.5322543E2,1.4745782E2,1.9004357E0,1.4649765E2,6.7277884E0,1.3378974E1,1.3311868E2,1.3972763E0,1.1981698E1,3.2285515E1,1.0083316E2],"tree_param":{"num_deleted":"0","num_feature":"512","num_nodes":"13","size_leaf_vector":"0"}},{"base_weights":[5.0779738E-2,-4.9949312E-1,5.9572905E-1,-4.512554E-1,6.640146E-1,1.8936996E0,6.0286874E-1],"categories":[],"categories_nodes":[],"categories_segments":[],"categories_sizes":[],"default_left":[true,false,true,false,true,false,false],"id":63,"left_children":[1,-1,3,-1,5,-1,-1],"loss_changes":[8.882864E1,0E0,1.0937145E1,0E0,9.391254E0,0E0,0E0],"parents":[2147483647,0,0,2,2,4,4],"right_children":[2,-1,4,-1,6,-1,-1],"split_conditions":[7.7896154E-1,-1.4984794E-1,5.517272E-1,-1.3537663E-1,8.149309E-1,5.681099E-1,1.8086062E-1],"split_indices":[64,0,50,0,64,0,0],"split_type":[0,0,0,0,0,0,0],"sum_hessian":[2.9423074E2,1.4644179E2,1.4778896E2,8.705408E0,1.3908354E2,5.1686325E0,1.339149E2],"tree_param":{"num_deleted":"0","num_feature":"512","num_nodes":"7","size_leaf_vector":"0"}},{"base_weights":[2.929253E-3,-4.9969217E-1,6.2308794E-1,1.8350744E0,5.734823E-1,-3.376216E-1,3.8230243E0,3.0895652E-2,5.777756E-1],"categories":[],"categories_nodes":[],"categories_segments":[],"categories_sizes":[],"default_left":[true,false,true,true,true,false,false,false,false],"id":64,"left_children":[1,-1,3,5,7,-1,-1,-1,-1],"loss_changes":[8.71735E1,0E0,6.474388E0,2.0588972E1,2.657051E-1,0E0,0E0,0E0,0E0],"parents":[2147483647,0,0,2,2,3,3,4,4],"right_children":[2,-1,4,6,8,-1,-1,-1,-1],"split_conditions":[2.0865488E0,-1.4990766E-1,2.2064734E0,3.439086E-1,2.522155E-1,-1.01286486E-1,1.1469073E0,9.268696E-3,1.7333269E-1],"split_indices":[309,0,309,4,428,0,0,0,0],"split_type":[0,0,0,0,0,0,0,0,0],"sum_hessian":[2.7766772E2,1.5347487E2,1.2419287E2,3.468001E0,1.2072487E2,2.0536573E0,1.4143437E0,1.0120982E0,1.1971277E2],"tree_param":{"num_deleted":"0","num_feature":"512","num_nodes":"9","size_leaf_vector":"0"}},{"base_weights":[-2.7578078E-2,-4.9972567E-1,5.773515E-1],"categories":[],"categories_nodes":[],"categories_segments":[],"categories_sizes":[],"default_left":[true,false,false],"id":65,"left_children":[1,-1,-1],"loss_changes":[7.988734E1,0E0,0E0],"parents":[2147483647,0,0],"right_children":[2,-1,-1],"split_conditions":[1.2175826E0,-1.499177E-1,1.7320547E-1],"split_indices":[296,0,0],"split_type":[0,0,0],"sum_hessian":[2.7769168E2,1.5606042E2,1.21631256E2],"tree_param":{"num_deleted":"0","num_feature":"512","num_nodes":"3","size_leaf_vector":"0"}},{"base_weights":[-2.7546575E-2,-4.9972567E-1,5.773634E-1],"categories":[],"categories_nodes":[],"categories_segments":[],"categories_sizes":[],"default_left":[true,false,false],"id":66,"left_children":[1,-1,-1],"loss_changes":[7.989356E1,0E0,0E0],"parents":[2147483647,0,0],"right_children":[2,-1,-1],"split_conditions":[8.1385684E-1,-1.499177E-1,1.7320901E-1],"split_indices":[479,0,0],"split_type":[0,0,0],"sum_hessian":[2.7770395E2,1.5606052E2,1.2164343E2],"tree_param":{"num_deleted":"0","num_feature":"512","num_nodes":"3","size_leaf_vector":"0"}},{"base_weights":[-2.3936879E-2,-4.9972534E-1,5.778101E-1],"categories":[],"categories_nodes":[],"categories_segments":[],"categories_sizes":[],"default_left":[true,false,false],"id":67,"left_children":[1,-1,-1],"loss_changes":[8.0519844E1,0E0,0E0],"parents":[2147483647,0,0],"right_children":[2,-1,-1],"split_conditions":[8.483563E-1,-1.499176E-1,1.7334303E-1],"split_indices":[169,0,0],"split_type":[0,0,0],"sum_hessian":[2.792302E2,1.5603009E2,1.2320011E2],"tree_param":{"num_deleted":"0","num_feature":"512","num_nodes":"3","size_leaf_vector":"0"}},{"base_weights":[-2.6663862E-2,-4.997255E-1,5.773079E-1],"categories":[],"categories_nodes":[],"categories_segments":[],"categories_sizes":[],"default_left":[true,false,false],"id":68,"left_children":[1,-1,-1],"loss_changes":[8.0031296E1,0E0,0E0],"parents":[2147483647,0,0],"right_children":[2,-1,-1],"split_conditions":[7.9188955E-1,-1.4991765E-1,1.7319237E-1],"split_indices":[45,0,0],"split_type":[0,0,0],"sum_hessian":[2.7809827E2,1.5604692E2,1.22051346E2],"tree_param":{"num_deleted":"0","num_feature":"512","num_nodes":"3","size_leaf_vector":"0"}},{"base_weights":[-2.7573146E-2,-4.9972567E-1,5.773534E-1],"categories":[],"categories_nodes":[],"categories_segments":[],"categories_sizes":[],"default_left":[true,false,false],"id":69,"left_children":[1,-1,-1],"loss_changes":[7.988831E1,0E0,0E0],"parents":[2147483647,0,0],"right_children":[2,-1,-1],"split_conditions":[1.7002594E0,-1.499177E-1,1.7320603E-1],"split_indices":[430,0,0],"split_type":[0,0,0],"sum_hessian":[2.776936E2,1.5606044E2,1.2163316E2],"tree_param":{"num_deleted":"0","num_feature":"512","num_nodes":"3","size_leaf_vector":"0"}},{"base_weights":[-2.7578078E-2,-4.9972567E-1,5.773515E-1],"categories":[],"categories_nodes":[],"categories_segments":[],"categories_sizes":[],"default_left":[true,false,false],"id":70,"left_children":[1,-1,-1],"loss_changes":[7.988734E1,0E0,0E0],"parents":[2147483647,0,0],"right_children":[2,-1,-1],"split_conditions":[2.2936044E0,-1.499177E-1,1.7320547E-1],"split_indices":[0,0,0],"split_type":[0,0,0],"sum_hessian":[2.7769168E2,1.5606042E2,1.21631256E2],"tree_param":{"num_deleted":"0","num_feature":"512","num_nodes":"3","size_leaf_vector":"0"}},{"base_weights":[-2.5209391E-2,-4.997255E-1,5.776876E-1],"categories":[],"categories_nodes":[],"categories_segments":[],"categories_sizes":[],"default_left":[true,false,false],"id":71,"left_children":[1,-1,-1],"loss_changes":[8.030262E1,0E0,0E0],"parents":[2147483647,0,0],"right_children":[2,-1,-1],"split_conditions":[6.333984E-1,-1.4991765E-1,1.7330629E-1],"split_indices":[429,0,0],"split_type":[0,0,0],"sum_hessian":[2.786865E2,1.5604268E2,1.22643814E2],"tree_param":{"num_deleted":"0","num_feature":"512","num_nodes":"3","size_leaf_vector":"0"}},{"base_weights":[-2.2601528E-2,-4.9814638E-1,5.660663E-1],"categories":[],"categories_nodes":[],"categories_segments":[],"categories_sizes":[],"default_left":[true,false,false],"id":72,"left_children":[1,-1,-1],"loss_changes":[6.057274E1,0E0,0E0],"parents":[2147483647,0,0],"right_children":[2,-1,-1],"split_conditions":[1.5074023E0,-1.4944392E-1,1.698199E-1],"split_indices":[471,0,0],"split_type":[0,0,0],"sum_hessian":[2.1437186E2,1.18664566E2,9.570729E1],"tree_param":{"num_deleted":"0","num_feature":"512","num_nodes":"3","size_leaf_vector":"0"}},{"base_weights":[6.046045E-2,-4.9787185E-1,6.013443E-1,-4.3979266E-1,6.737803E-1,1.234851E0,5.598826E-1],"categories":[],"categories_nodes":[],"categories_segments":[],"categories_sizes":[],"default_left":[true,false,true,false,true,false,false],"id":73,"left_children":[1,-1,3,-1,5,-1,-1],"loss_changes":[6.871683E1,0E0,9.008934E0,0E0,6.2363853E0,0E0,0E0],"parents":[2147483647,0,0,2,2,4,4],"right_children":[2,-1,4,-1,6,-1,-1],"split_conditions":[8.272388E-1,-1.4936157E-1,5.668609E-1,-1.319378E-1,8.916426E-1,3.7045532E-1,1.6796479E-1],"split_indices":[256,0,50,0,326,0,0],"split_type":[0,0,0,0,0,0,0],"sum_hessian":[2.2555312E2,1.1102553E2,1.14527596E2,7.1199346E0,1.0740765E2,1.6463789E1,9.094387E1],"tree_param":{"num_deleted":"0","num_feature":"512","num_nodes":"7","size_leaf_vector":"0"}},{"base_weights":[-2.7511114E-2,-4.9815145E-1,5.537024E-1],"categories":[],"categories_nodes":[],"categories_segments":[],"categories_sizes":[],"default_left":[true,false,false],"id":74,"left_children":[1,-1,-1],"loss_changes":[5.9256416E1,0E0,0E0],"parents":[2147483647,0,0],"right_children":[2,-1,-1],"split_conditions":[4.4274452E-1,-1.4944544E-1,1.6611072E-1],"split_indices":[386,0,0],"split_type":[0,0,0],"sum_hessian":[2.146176E2,1.18668304E2,9.5949295E1],"tree_param":{"num_deleted":"0","num_feature":"512","num_nodes":"3","size_leaf_vector":"0"}},{"base_weights":[-2.9032283E-2,-4.9815184E-1,5.536897E-1],"categories":[],"categories_nodes":[],"categories_segments":[],"categories_sizes":[],"default_left":[true,false,false],"id":75,"left_children":[1,-1,-1],"loss_changes":[5.9072533E1,0E0,0E0],"parents":[2147483647,0,0],"right_children":[2,-1,-1],"split_conditions":[1.9019082E0,-1.4944556E-1,1.6610692E-1],"split_indices":[2,0,0],"split_type":[0,0,0],"sum_hessian":[2.1408398E2,1.1868329E2,9.540069E1],"tree_param":{"num_deleted":"0","num_feature":"512","num_nodes":"3","size_leaf_vector":"0"}},{"base_weights":[-2.9089684E-2,-4.9815184E-1,5.5367184E-1],"categories":[],"categories_nodes":[],"categories_segments":[],"categories_sizes":[],"default_left":[true,false,false],"id":76,"left_children":[1,-1,-1],"loss_changes":[5.9064285E1,0E0,0E0],"parents":[2147483647,0,0],"right_children":[2,-1,-1],"split_conditions":[1.155369E-1,-1.4944556E-1,1.6610156E-1],"split_indices":[119,0,0],"split_type":[0,0,0],"sum_hessian":[2.1406558E2,1.186832E2,9.538239E1],"tree_param":{"num_deleted":"0","num_feature":"512","num_nodes":"3","size_leaf_vector":"0"}},{"base_weights":[1.2060833E-2,-5.063297E-1,6.0278964E-1,1.1453848E0,5.5855256E-1,1.5758897E0,-2.9766315E-1],"categories":[],"categories_nodes":[],"categories_segments":[],"categories_sizes":[],"default_left":[true,false,true,true,false,false,false],"id":77,"left_children":[1,-1,3,5,-1,-1,-1],"loss_changes":[6.949083E1,0E0,1.9058113E0,4.844322E0,0E0,0E0,0E0],"parents":[2147483647,0,0,2,2,3,3],"right_children":[2,-1,4,6,-1,-1,-1],"split_conditions":[3.5057348E-1,-1.5189892E-1,8.368145E-1,3.4355947E-1,1.6756578E-1,4.7276694E-1,-8.929895E-2],"split_indices":[98,0,413,0,0,0,0],"split_type":[0,0,0,0,0,0,0],"sum_hessian":[2.249283E2,1.19875305E2,1.0505299E2,6.042759E0,9.901023E1,4.58335E0,1.4594086E0],"tree_param":{"num_deleted":"0","num_feature":"512","num_nodes":"7","size_leaf_vector":"0"}},{"base_weights":[3.5457935E-2,-4.9797162E-1,5.7413864E-1,-4.0314123E-1,6.136518E-1,1.9068431E0,5.765478E-1],"categories":[],"categories_nodes":[],"categories_segments":[],"categories_sizes":[],"default_left":[true,false,true,false,true,false,false],"id":78,"left_children":[1,-1,3,-1,5,-1,-1],"loss_changes":[6.587522E1,0E0,4.6508636E0,0E0,4.1786613E0,0E0,0E0],"parents":[2147483647,0,0,2,2,4,4],"right_children":[2,-1,4,-1,6,-1,-1],"split_conditions":[3.083285E-1,-1.4939149E-1,1.0981965E0,-1.2094238E-1,3.4593576E-1,5.7205296E-1,1.7296435E-1],"split_indices":[200,0,392,0,200,0,0],"split_type":[0,0,0,0,0,0,0],"sum_hessian":[2.2725728E2,1.1422316E2,1.1303412E2,4.03495E0,1.0899917E2,1.6346523E0,1.0736451E2],"tree_param":{"num_deleted":"0","num_feature":"512","num_nodes":"7","size_leaf_vector":"0"}},{"base_weights":[3.6467567E-2,-4.980566E-1,6.401365E-1,1.3245523E0,5.4799426E-1,-2.983172E-1,1.5873712E0,2.7051384E-2,5.539004E-1],"categories":[],"categories_nodes":[],"categories_segments":[],"categories_sizes":[],"default_left":[true,false,true,true,true,false,false,false,false],"id":79,"left_children":[1,-1,3,5,7,-1,-1,-1,-1],"loss_changes":[7.1577194E1,0E0,5.842083E0,5.4433327E0,2.7267838E-1,0E0,0E0,0E0,0E0],"parents":[2147483647,0,0,2,2,3,3,4,4],"right_children":[2,-1,4,6,8,-1,-1,-1,-1],"split_conditions":[3.8103825E-1,-1.4941698E-1,4.5688224E-1,1.2138465E-1,5.325211E-2,-8.949516E-2,4.762114E-1,8.115415E-3,1.6617014E-1],"split_indices":[498,0,498,26,50,0,0,0,0],"split_type":[0,0,0,0,0,0,0,0,0],"sum_hessian":[2.1983594E2,1.16688225E2,1.03147705E2,1.0651938E1,9.2495766E1,1.4657947E0,9.186144E0,1.0994587E0,9.139631E1],"tree_param":{"num_deleted":"0","num_feature":"512","num_nodes":"9","size_leaf_vector":"0"}},{"base_weights":[-2.9284144E-2,-4.98152E-1,5.5376995E-1],"categories":[],"categories_nodes":[],"categories_segments":[],"categories_sizes":[],"default_left":[true,false,false],"id":80,"left_children":[1,-1,-1],"loss_changes":[5.9048157E1,0E0,0E0],"parents":[2147483647,0,0],"right_children":[2,-1,-1],"split_conditions":[1.2842534E0,-1.4944561E-1,1.6613099E-1],"split_indices":[18,0,0],"split_type":[0,0,0],"sum_hessian":[2.1398758E2,1.1868869E2,9.529889E1],"tree_param":{"num_deleted":"0","num_feature":"512","num_nodes":"3","size_leaf_vector":"0"}},{"base_weights":[6.3527552E-3,-4.98079E-1,6.0421026E-1,1.417889E0,5.497332E-1,1.7086587E0,1.5702288E-1,8.8963434E-2,5.536852E-1],"categories":[],"categories_nodes":[],"categories_segments":[],"categories_sizes":[],"default_left":[true,false,true,true,true,false,false,false,false],"id":81,"left_children":[1,-1,3,5,7,-1,-1,-1,-1],"loss_changes":[6.5978325E1,0E0,3.6581955E0,1.8026934E0,1.2457466E-1,0E0,0E0,0E0,0E0],"parents":[2147483647,0,0,2,2,3,3,4,4],"right_children":[2,-1,4,6,8,-1,-1,-1,-1],"split_conditions":[6.505504E-1,-1.494237E-1,6.7342794E-1,6.916353E-1,3.492931E-1,5.125976E-1,4.7106866E-2,2.6689032E-2,1.6610557E-1],"split_indices":[327,0,327,226,15,0,0,0,0],"split_type":[0,0,0,0,0,0,0,0,0],"sum_hessian":[2.1677885E2,1.1766661E2,9.9112236E1,4.648855E0,9.446338E1,3.4890864E0,1.1597688E0,1.0032476E0,9.346014E1],"tree_param":{"num_deleted":"0","num_feature":"512","num_nodes":"9","size_leaf_vector":"0"}},{"base_weights":[-2.8196534E-2,-4.9815157E-1,5.536463E-1],"categories":[],"categories_nodes":[],"categories_segments":[],"categories_sizes":[],"default_left":[true,false,false],"id":82,"left_children":[1,-1,-1],"loss_changes":[5.9169697E1,0E0,0E0],"parents":[2147483647,0,0],"right_children":[2,-1,-1],"split_conditions":[2.4806418E0,-1.4944547E-1,1.660939E-1],"split_indices":[307,0,0],"split_type":[0,0,0],"sum_hessian":[2.1438142E2,1.1867298E2,9.570845E1],"tree_param":{"num_deleted":"0","num_feature":"512","num_nodes":"3","size_leaf_vector":"0"}},{"base_weights":[-2.8864052E-2,-4.981517E-1,5.5359703E-1],"categories":[],"categories_nodes":[],"categories_segments":[],"categories_sizes":[],"default_left":[true,false,false],"id":83,"left_children":[1,-1,-1],"loss_changes":[5.9085644E1,0E0,0E0],"parents":[2147483647,0,0],"right_children":[2,-1,-1],"split_conditions":[1.2669022E0,-1.4944552E-1,1.6607912E-1],"split_indices":[504,0,0],"split_type":[0,0,0],"sum_hessian":[2.1415138E2,1.18677734E2,9.547365E1],"tree_param":{"num_deleted":"0","num_feature":"512","num_nodes":"3","size_leaf_vector":"0"}},{"base_weights":[9.936434E-2,-4.6379286E-1,6.8371576E-1,-4.979333E-1,6.925237E-1,-3.929259E-1,7.192867E-1,1.1493072E-1,8.7623054E-1,1.1375326E0,6.0324687E-1,1.5726209E0,9.1061085E-1,1.6090729E0,5.5684656E-1],"categories":[],"categories_nodes":[],"categories_segments":[],"categories_sizes":[],"default_left":[true,true,true,false,true,false,true,false,false,true,true,false,false,false,false],"id":84,"left_children":[1,3,5,-1,7,-1,9,-1,-1,11,13,-1,-1,-1,-1],"loss_changes":[7.669226E1,5.034004E0,4.6601334E0,0E0,3.0513E-1,0E0,4.7010345E0,0E0,0E0,8.366871E-1,3.2587242E0,0E0,0E0,0E0,0E0],"parents":[2147483647,0,0,1,1,2,2,4,4,6,6,9,9,10,10],"right_children":[2,4,6,-1,8,-1,10,-1,-1,12,14,-1,-1,-1,-1],"split_conditions":[1.3394058E-1,2.7107096E-1,1.2285113E0,-1.4938E-1,1.4111478E0,-1.17877774E-1,5.2615297E-1,3.4479216E-2,2.6286918E-1,3.1509697E-1,1.033581E0,4.717863E-1,2.7318326E-1,4.827219E-1,1.6705397E-1],"split_indices":[235,23,247,0,247,0,462,0,0,235,0,0,0,0,0],"split_type":[0,0,0,0,0,0,0,0,0,0,0,0,0,0,0],"sum_hessian":[2.3108571E2,1.1778197E2,1.1330375E2,1.14957214E2,2.8247511E0,3.302394E0,1.1000135E2,1.0739049E0,1.7508461E0,2.1978954E1,8.80224E1,5.5011287E0,1.6477825E1,2.3964365E0,8.562596E1],"tree_param":{"num_deleted":"0","num_feature":"512","num_nodes":"15","size_leaf_vector":"0"}},{"base_weights":[-1.4236907E-3,-5.0070983E-1,5.943351E-1,1.4427537E0,5.71073E-1],"categories":[],"categories_nodes":[],"categories_segments":[],"categories_sizes":[],"default_left":[true,false,true,false,false],"id":85,"left_children":[1,-1,3,-1,-1],"loss_changes":[6.580828E1,0E0,1.1669426E0,0E0,0E0],"parents":[2147483647,0,0,2,2],"right_children":[2,-1,4,-1,-1],"split_conditions":[5.590235E-1,-1.5021296E-1,5.195433E-1,4.3282613E-1,1.713219E-1],"split_indices":[97,0,194,0,0],"split_type":[0,0,0,0,0],"sum_hessian":[2.1923802E2,1.1936316E2,9.9874855E1,1.0368495E0,9.8838005E1],"tree_param":{"num_deleted":"0","num_feature":"512","num_nodes":"5","size_leaf_vector":"0"}},{"base_weights":[6.1650155E-3,-5.018055E-1,5.9291023E-1,-2.999998E-1,6.088038E-1,1.6651164E0,5.581064E-1],"categories":[],"categories_nodes":[],"categories_segments":[],"categories_sizes":[],"default_left":[true,false,true,false,true,false,false],"id":86,"left_children":[1,-1,3,-1,5,-1,-1],"loss_changes":[6.634398E1,0E0,1.6483917E0,0E0,4.5227013E0,0E0,0E0],"parents":[2147483647,0,0,2,2,4,4],"right_children":[2,-1,4,-1,6,-1,-1],"split_conditions":[1.4369112E0,-1.5054165E-1,5.214422E-1,-8.9999944E-2,7.875725E-1,4.9953493E-1,1.6743194E-1],"split_indices":[156,0,26,0,253,0,0],"split_type":[0,0,0,0,0,0,0],"sum_hessian":[2.2059578E2,1.18312416E2,1.0228336E2,1.4761683E0,1.008072E2,3.1582775E0,9.764892E1],"tree_param":{"num_deleted":"0","num_feature":"512","num_nodes":"7","size_leaf_vector":"0"}},{"base_weights":[-2.5175422E-2,-4.981524E-1,5.589213E-1],"categories":[],"categories_nodes":[],"categories_segments":[],"categories_sizes":[],"default_left":[true,false,false],"id":87,"left_children":[1,-1,-1],"loss_changes":[5.9860535E1,0E0,0E0],"parents":[2147483647,0,0],"right_children":[2,-1,-1],"split_conditions":[1.4513943E-1,-1.4944573E-1,1.6767639E-1],"split_indices":[162,0,0],"split_type":[0,0,0],"sum_hessian":[2.1467067E2,1.18699745E2,9.5970924E1],"tree_param":{"num_deleted":"0","num_feature":"512","num_nodes":"3","size_leaf_vector":"0"}},{"base_weights":[-1.3437516E-2,-4.9815017E-1,5.841898E-1,5.5157703E-1,1.8445079E0],"categories":[],"categories_nodes":[],"categories_segments":[],"categories_sizes":[],"default_left":[true,false,true,false,false],"id":88,"left_children":[1,-1,3,-1,-1],"loss_changes":[6.272927E1,0E0,2.9690933E0,0E0,0E0],"parents":[2147483647,0,0,2,2],"right_children":[2,-1,4,-1,-1],"split_conditions":[2.0287624E-1,-1.4944506E-1,8.512219E-1,1.6547312E-1,5.533524E-1],"split_indices":[490,0,123,0,0],"split_type":[0,0,0,0,0],"sum_hessian":[2.1454402E2,1.1855502E2,9.5989E1,9.496917E1,1.0198294E0],"tree_param":{"num_deleted":"0","num_feature":"512","num_nodes":"5","size_leaf_vector":"0"}},{"base_weights":[-2.5787385E-2,5.424308E-1,-4.9807537E-1,-2.700721E-1,5.546755E-1],"categories":[],"categories_nodes":[],"categories_segments":[],"categories_sizes":[],"default_left":[true,true,false,false,false],"id":89,"left_children":[1,3,-1,-1,-1],"loss_changes":[5.8316162E1,1.131321E0,0E0,0E0,0E0],"parents":[2147483647,0,0,1,1],"right_children":[2,4,-1,-1,-1],"split_conditions":[1.7171049E-5,8.589089E-1,-1.4942262E-1,-8.102164E-2,1.6640267E-1],"split_indices":[326,26,0,0,0],"split_type":[0,0,0,0,0],"sum_hessian":[2.1529684E2,9.765629E1,1.1764056E2,1.1372511E0,9.6519035E1],"tree_param":{"num_deleted":"0","num_feature":"512","num_nodes":"5","size_leaf_vector":"0"}},{"base_weights":[-2.921114E-2,5.5363613E-1,-4.9815184E-1],"categories":[],"categories_nodes":[],"categories_segments":[],"categories_sizes":[],"default_left":[true,false,false],"id":90,"left_children":[1,-1,-1],"loss_changes":[5.904695E1,0E0,0E0],"parents":[2147483647,0,0],"right_children":[2,-1,-1],"split_conditions":[6.958107E-1,1.6609085E-1,-1.4944556E-1],"split_indices":[113,0,0],"split_type":[0,0,0],"sum_hessian":[2.1402629E2,9.534331E1,1.1868298E2],"tree_param":{"num_deleted":"0","num_feature":"512","num_nodes":"3","size_leaf_vector":"0"}},{"base_weights":[6.199506E-2,-4.9808505E-1,6.397525E-1,6.889214E-1,-4.1252857E-1,1.3446134E0,5.541035E-1],"categories":[],"categories_nodes":[],"categories_segments":[],"categories_sizes":[],"default_left":[true,false,true,true,false,false,false],"id":91,"left_children":[1,-1,3,5,-1,-1,-1],"loss_changes":[7.344075E1,0E0,6.0618362E0,8.718731E0,0E0,0E0,0E0],"parents":[2147483647,0,0,2,2,3,3],"right_children":[2,-1,4,6,-1,-1,-1],"split_conditions":[4.1765308E-1,-1.4942552E-1,7.738521E-1,5.328777E-1,-1.2375858E-1,4.0338406E-1,1.6623105E-1],"split_indices":[52,0,26,52,0,0,0],"split_type":[0,0,0,0,0,0,0],"sum_hessian":[2.2497112E2,1.1430315E2,1.1066797E2,1.0605763E2,4.610338E0,1.6557245E1,8.950039E1],"tree_param":{"num_deleted":"0","num_feature":"512","num_nodes":"7","size_leaf_vector":"0"}},{"base_weights":[-2.867967E-2,-4.9815172E-1,5.5364794E-1],"categories":[],"categories_nodes":[],"categories_segments":[],"categories_sizes":[],"default_left":[true,false,false],"id":92,"left_children":[1,-1,-1],"loss_changes":[5.911177E1,0E0,0E0],"parents":[2147483647,0,0],"right_children":[2,-1,-1],"split_conditions":[4.5654878E-1,-1.4944552E-1,1.6609439E-1],"split_indices":[306,0,0],"split_type":[0,0,0],"sum_hessian":[2.1421165E2,1.18678055E2,9.55336E1],"tree_param":{"num_deleted":"0","num_feature":"512","num_nodes":"3","size_leaf_vector":"0"}},{"base_weights":[-2.0769577E-2,-4.8185253E-1,5.6079537E-1,-4.9813926E-1,7.1859014E-1],"categories":[],"categories_nodes":[],"categories_segments":[],"categories_sizes":[],"default_left":[true,true,false,false,false],"id":93,"left_children":[1,3,-1,-1,-1],"loss_changes":[5.7960472E1,2.7146492E0,0E0,0E0,0E0],"parents":[2147483647,0,0,1,1],"right_children":[2,4,-1,-1,-1],"split_conditions":[7.053059E-1,6.935281E-2,1.6823861E-1,-1.4944178E-1,2.1557705E-1],"split_indices":[59,196,0,0,0],"split_type":[0,0,0,0,0],"sum_hessian":[2.1414197E2,1.19539085E2,9.460288E1,1.1851618E2,1.0229026E0],"tree_param":{"num_deleted":"0","num_feature":"512","num_nodes":"5","size_leaf_vector":"0"}},{"base_weights":[-2.5621861E-2,-5.0190604E-1,5.548411E-1],"categories":[],"categories_nodes":[],"categories_segments":[],"categories_sizes":[],"default_left":[true,false,false],"id":94,"left_children":[1,-1,-1],"loss_changes":[6.0820606E1,0E0,0E0],"parents":[2147483647,0,0],"right_children":[2,-1,-1],"split_conditions":[1.2621145E0,-1.5057182E-1,1.6645233E-1],"split_indices":[381,0,0],"split_type":[0,0,0],"sum_hessian":[2.1798634E2,1.1981254E2,9.8173805E1],"tree_param":{"num_deleted":"0","num_feature":"512","num_nodes":"3","size_leaf_vector":"0"}},{"base_weights":[-2.9493367E-2,-4.9815196E-1,5.536981E-1],"categories":[],"categories_nodes":[],"categories_segments":[],"categories_sizes":[],"default_left":[true,false,false],"id":95,"left_children":[1,-1,-1],"loss_changes":[5.901773E1,0E0,0E0],"parents":[2147483647,0,0],"right_children":[2,-1,-1],"split_conditions":[6.98069E-3,-1.494456E-1,1.6610944E-1],"split_indices":[10,0,0],"split_type":[0,0,0],"sum_hessian":[2.1392168E2,1.1868834E2,9.523334E1],"tree_param":{"num_deleted":"0","num_feature":"512","num_nodes":"3","size_leaf_vector":"0"}},{"base_weights":[7.751351E-2,-5.016311E-1,5.914845E-1,-5.0390923E-1,-1.21770255E-1,-4.319836E-1,6.4548904E-1,6.045131E-1,1.2199253E0,6.922201E-1,5.592201E-1,1.8200536E0,6.754334E-1],"categories":[],"categories_nodes":[],"categories_segments":[],"categories_sizes":[],"default_left":[true,true,true,false,false,false,true,true,true,false,false,false,false],"id":96,"left_children":[1,3,5,-1,-1,-1,7,9,11,-1,-1,-1,-1],"loss_changes":[7.277909E1,3.8187027E-2,7.4349136E0,0E0,0E0,0E0,2.1667023E0,7.827759E-2,1.1341105E0,0E0,0E0,0E0,0E0],"parents":[2147483647,0,0,1,1,2,2,6,6,7,7,8,8],"right_children":[2,4,6,-1,-1,-1,8,10,12,-1,-1,-1,-1],"split_conditions":[5.136901E-1,4.5963705E-1,7.590913E-1,-1.5117277E-1,-3.653108E-2,-1.2959509E-1,1.1014669E0,2.815912E-6,5.995448E-1,2.0766604E-1,1.6776603E-1,5.460161E-1,2.0263003E-1],"split_indices":[245,245,168,0,0,0,72,378,245,0,0,0,0],"split_type":[0,0,0,0,0,0,0,0,0,0,0,0,0],"sum_hessian":[2.4250444E2,1.1403422E2,1.2847021E2,1.13029785E2,1.0044345E0,6.088322E0,1.223819E2,1.1614907E2,6.232829E0,3.4690365E1,8.14587E1,1.8505383E0,4.382291E0],"tree_param":{"num_deleted":"0","num_feature":"512","num_nodes":"13","size_leaf_vector":"0"}},{"base_weights":[5.504766E-3,-4.9807802E-1,6.068957E-1,1.5875659E0,5.5093324E-1,1.646315E-1,1.9933417E0,1.1664855E-1,5.5483335E-1],"categories":[],"categories_nodes":[],"categories_segments":[],"categories_sizes":[],"default_left":[true,false,true,true,true,false,false,false,false],"id":97,"left_children":[1,-1,3,5,7,-1,-1,-1,-1],"loss_changes":[6.6049904E1,0E0,4.5799828E0,2.4630175E0,9.712982E-2,0E0,0E0,0E0,0E0],"parents":[2147483647,0,0,2,2,3,3,4,4],"right_children":[2,-1,4,6,8,-1,-1,-1,-1],"split_conditions":[1.5999606E0,-1.494234E-1,1.6450644E0,1.1375413E0,8.383827E-1,4.938945E-2,5.9800255E-1,3.4994565E-2,1.6645001E-1],"split_indices":[377,0,377,6,89,0,0,0,0],"split_type":[0,0,0,0,0,0,0,0,0],"sum_hessian":[2.1609624E2,1.17705635E2,9.83906E1,3.8341208E0,9.455648E1,1.1626776E0,2.6714432E0,1.1167172E0,9.3439766E1],"tree_param":{"num_deleted":"0","num_feature":"512","num_nodes":"9","size_leaf_vector":"0"}},{"base_weights":[9.2419855E-2,-4.9347475E-1,6.1434025E-1,-4.9837154E-1,-1.0047425E-1,6.611466E-1,-4.2060414E-1,1.0359564E0,6.019457E-1,1.6621616E0,7.397404E-1,7.0772994E-1,5.551069E-1],"categories":[],"categories_nodes":[],"categories_segments":[],"categories_sizes":[],"default_left":[true,true,true,false,false,true,false,true,true,false,false,false,false],"id":98,"left_children":[1,3,5,-1,-1,7,-1,9,11,-1,-1,-1,-1],"loss_changes":[7.445427E1,1.7084885E-1,6.512184E0,0E0,0E0,2.1170425E0,0E0,1.6382694E0,1.4746475E-1,0E0,0E0,0E0,0E0],"parents":[2147483647,0,0,1,1,2,2,5,5,7,7,8,8],"right_children":[2,4,6,-1,-1,8,-1,10,12,-1,-1,-1,-1],"split_conditions":[8.331656E-1,8.0814326E-1,5.2033037E-2,-1.4951147E-1,-3.0142277E-2,3.67093E-1,-1.2618124E-1,9.554237E0,3.9575237E-1,4.986485E-1,2.2192211E-1,2.1231899E-1,1.6653207E-1],"split_indices":[476,476,42,0,0,121,0,155,121,0,0,0,0],"split_type":[0,0,0,0,0,0,0,0,0,0,0,0,0],"sum_hessian":[2.4149002E2,1.1379789E2,1.2769212E2,1.121326E2,1.6652893E0,1.2251256E2,5.179571E0,1.4460708E1,1.0805185E2,3.1629226E0,1.1297785E1,2.8830027E1,7.9221825E1],"tree_param":{"num_deleted":"0","num_feature":"512","num_nodes":"13","size_leaf_vector":"0"}},{"base_weights":[5.0204445E-2,-4.9786147E-1,5.584054E-1,-4.3703872E-1,6.2039185E-1,1.1879892E0,5.7245815E-1],"categories":[],"categories_nodes":[],"categories_segments":[],"categories_sizes":[],"default_left":[true,false,true,false,true,false,false],"id":99,"left_children":[1,-1,3,-1,5,-1,-1],"loss_changes":[6.501946E1,0E0,7.7421722E0,0E0,2.4322548E0,0E0,0E0],"parents":[2147483647,0,0,2,2,4,4],"right_children":[2,-1,4,-1,6,-1,-1],"split_conditions":[7.7896154E-1,-1.4935845E-1,5.517272E-1,-1.3111162E-1,8.149309E-1,3.563968E-1,1.7173745E-1],"split_indices":[64,0,50,0,64,0,0],"split_type":[0,0,0,0,0,0,0],"sum_hessian":[2.314418E2,1.1136322E2,1.2007858E2,6.6843085E0,1.1339427E2,6.978278E0,1.0641599E2],"tree_param":{"num_deleted":"0","num_feature":"512","num_nodes":"7","size_leaf_vector":"0"}},{"base_weights":[4.244127E-3,-4.9809498E-1,5.8946204E-1,-3.3761474E-1,6.1215353E-1,1.7050343E0,5.541345E-1],"categories":[],"categories_nodes":[],"categories_segments":[],"categories_sizes":[],"default_left":[true,false,true,false,true,false,false],"id":100,"left_children":[1,-1,3,-1,5,-1,-1],"loss_changes":[6.430042E1,0E0,2.331913E0,0E0,5.330475E0,0E0,0E0],"parents":[2147483647,0,0,2,2,4,4],"right_children":[2,-1,4,-1,6,-1,-1],"split_conditions":[2.0865488E0,-1.494285E-1,3.2954037E-1,-1.0128443E-1,2.2075374E0,5.115103E-1,1.6624035E-1],"split_indices":[309,0,4,0,309,0,0],"split_type":[0,0,0,0,0,0,0],"sum_hessian":[2.1672665E2,1.1670142E2,1.0002524E2,2.0581827E0,9.796706E1,3.5076387E0,9.445941E1],"tree_param":{"num_deleted":"0","num_feature":"512","num_nodes":"7","size_leaf_vector":"0"}},{"base_weights":[-2.9310586E-2,-4.9815184E-1,5.5360854E-1],"categories":[],"categories_nodes":[],"categories_segments":[],"categories_sizes":[],"default_left":[true,false,false],"id":101,"left_children":[1,-1,-1],"loss_changes":[5.9032852E1,0E0,0E0],"parents":[2147483647,0,0],"right_children":[2,-1,-1],"split_conditions":[1.2175826E0,-1.4944556E-1,1.6608256E-1],"split_indices":[296,0,0],"split_type":[0,0,0],"sum_hessian":[2.1399385E2,1.1868281E2,9.5311035E1],"tree_param":{"num_deleted":"0","num_feature":"512","num_nodes":"3","size_leaf_vector":"0"}},{"base_weights":[-2.897419E-2,-4.9815184E-1,5.537008E-1],"categories":[],"categories_nodes":[],"categories_segments":[],"categories_sizes":[],"default_left":[true,false,false],"id":102,"left_children":[1,-1,-1],"loss_changes":[5.9080433E1,0E0,0E0],"parents":[2147483647,0,0],"right_children":[2,-1,-1],"split_conditions":[8.1385684E-1,-1.4944556E-1,1.6611025E-1],"split_indices":[479,0,0],"split_type":[0,0,0],"sum_hessian":[2.1410359E2,1.1868329E2,9.54203E1],"tree_param":{"num_deleted":"0","num_feature":"512","num_nodes":"3","size_leaf_vector":"0"}},{"base_weights":[-2.5725598E-2,-4.9815127E-1,5.5396676E-1],"categories":[],"categories_nodes":[],"categories_segments":[],"categories_sizes":[],"default_left":[true,false,false],"id":103,"left_children":[1,-1,-1],"loss_changes":[5.9490906E1,0E0,0E0],"parents":[2147483647,0,0],"right_children":[2,-1,-1],"split_conditions":[8.483563E-1,-1.4944538E-1,1.6619003E-1],"split_indices":[169,0,0],"split_type":[0,0,0],"sum_hessian":[2.1522218E2,1.1865988E2,9.65623E1],"tree_param":{"num_deleted":"0","num_feature":"512","num_nodes":"3","size_leaf_vector":"0"}},{"base_weights":[-2.8357418E-2,-4.9815157E-1,5.536022E-1],"categories":[],"categories_nodes":[],"categories_segments":[],"categories_sizes":[],"default_left":[true,false,false],"id":104,"left_children":[1,-1,-1],"loss_changes":[5.9146935E1,0E0,0E0],"parents":[2147483647,0,0],"right_children":[2,-1,-1],"split_conditions":[7.9188955E-1,-1.4944547E-1,1.6608067E-1],"split_indices":[45,0,0],"split_type":[0,0,0],"sum_hessian":[2.143288E2,1.1867275E2,9.5656044E1],"tree_param":{"num_deleted":"0","num_feature":"512","num_nodes":"3","size_leaf_vector":"0"}},{"base_weights":[-2.9189533E-2,-4.9815184E-1,5.5364186E-1],"categories":[],"categories_nodes":[],"categories_segments":[],"categories_sizes":[],"default_left":[true,false,false],"id":105,"left_children":[1,-1,-1],"loss_changes":[5.9049976E1,0E0,0E0],"parents":[2147483647,0,0],"right_children":[2,-1,-1],"split_conditions":[1.7002594E0,-1.4944556E-1,1.6609256E-1],"split_indices":[430,0,0],"split_type":[0,0,0],"sum_hessian":[2.1403331E2,1.18682976E2,9.535033E1],"tree_param":{"num_deleted":"0","num_feature":"512","num_nodes":"3","size_leaf_vector":"0"}},{"base_weights":[-2.926944E-2,-4.9815184E-1,5.5361986E-1],"categories":[],"categories_nodes":[],"categories_segments":[],"categories_sizes":[],"default_left":[true,false,false],"id":106,"left_children":[1,-1,-1],"loss_changes":[5.9038673E1,0E0,0E0],"parents":[2147483647,0,0],"right_children":[2,-1,-1],"split_conditions":[2.2936044E0,-1.4944556E-1,1.6608596E-1],"split_indices":[0,0,0],"split_type":[0,0,0],"sum_hessian":[2.1400726E2,1.1868286E2,9.5324394E1],"tree_param":{"num_deleted":"0","num_feature":"512","num_nodes":"3","size_leaf_vector":"0"}},{"base_weights":[-2.6503207E-2,-4.9815154E-1,5.5399734E-1],"categories":[],"categories_nodes":[],"categories_segments":[],"categories_sizes":[],"default_left":[true,false,false],"id":107,"left_children":[1,-1,-1],"loss_changes":[5.9400246E1,0E0,0E0],"parents":[2147483647,0,0],"right_children":[2,-1,-1],"split_conditions":[6.333984E-1,-1.4944547E-1,1.661992E-1],"split_indices":[429,0,0],"split_type":[0,0,0],"sum_hessian":[2.1494585E2,1.1867002E2,9.627582E1],"tree_param":{"num_deleted":"0","num_feature":"512","num_nodes":"3","size_leaf_vector":"0"}},{"base_weights":[-2.3332508E-2,-4.9637103E-1,5.502484E-1],"categories":[],"categories_nodes":[],"categories_segments":[],"categories_sizes":[],"default_left":[true,false,false],"id":108,"left_children":[1,-1,-1],"loss_changes":[4.5042953E1,0E0,0E0],"parents":[2147483647,0,0],"right_children":[2,-1,-1],"split_conditions":[1.5074023E0,-1.4891131E-1,1.6507453E-1],"split_indices":[471,0,0],"split_type":[0,0,0],"sum_hessian":[1.640039E2,8.995315E1,7.405075E1],"tree_param":{"num_deleted":"0","num_feature":"512","num_nodes":"3","size_leaf_vector":"0"}},{"base_weights":[6.1607663E-2,-4.9600634E-1,5.6742543E-1,-4.2344376E-1,6.3332057E-1,9.6801406E-1,5.413537E-1],"categories":[],"categories_nodes":[],"categories_segments":[],"categories_sizes":[],"default_left":[true,false,true,false,true,false,false],"id":109,"left_children":[1,-1,3,-1,5,-1,-1],"loss_changes":[5.046881E1,0E0,6.3906364E0,0E0,2.19458E0,0E0,0E0],"parents":[2147483647,0,0,2,2,4,4],"right_children":[2,-1,4,-1,6,-1,-1],"split_conditions":[8.272388E-1,-1.4880191E-1,5.668609E-1,-1.2703313E-1,8.916426E-1,2.9040423E-1,1.6240612E-1],"split_indices":[256,0,50,0,326,0,0],"split_type":[0,0,0,0,0,0,0],"sum_hessian":[1.7693715E2,8.416879E1,9.276836E1,5.44628E0,8.7322075E1,1.6769056E1,7.055302E1],"tree_param":{"num_deleted":"0","num_feature":"512","num_nodes":"7","size_leaf_vector":"0"}},{"base_weights":[-2.911111E-2,-4.9637812E-1,5.361894E-1],"categories":[],"categories_nodes":[],"categories_segments":[],"categories_sizes":[],"default_left":[true,false,false],"id":110,"left_children":[1,-1,-1],"loss_changes":[4.3902756E1,0E0,0E0],"parents":[2147483647,0,0],"right_children":[2,-1,-1],"split_conditions":[4.4274452E-1,-1.4891344E-1,1.6085681E-1],"split_indices":[386,0,0],"split_type":[0,0,0],"sum_hessian":[1.6419865E2,8.99607E1,7.4237946E1],"tree_param":{"num_deleted":"0","num_feature":"512","num_nodes":"3","size_leaf_vector":"0"}},{"base_weights":[-3.081182E-2,-4.963787E-1,5.3612036E-1],"categories":[],"categories_nodes":[],"categories_segments":[],"categories_sizes":[],"default_left":[true,false,false],"id":111,"left_children":[1,-1,-1],"loss_changes":[4.374641E1,0E0,0E0],"parents":[2147483647,0,0],"right_children":[2,-1,-1],"split_conditions":[1.9019082E0,-1.489136E-1,1.6083612E-1],"split_indices":[2,0,0],"split_type":[0,0,0],"sum_hessian":[1.6373248E2,8.997177E1,7.376071E1],"tree_param":{"num_deleted":"0","num_feature":"512","num_nodes":"3","size_leaf_vector":"0"}},{"base_weights":[-3.0886143E-2,-4.9637866E-1,5.3610325E-1],"categories":[],"categories_nodes":[],"categories_segments":[],"categories_sizes":[],"default_left":[true,false,false],"id":112,"left_children":[1,-1,-1],"loss_changes":[4.37387E1,0E0,0E0],"parents":[2147483647,0,0],"right_children":[2,-1,-1],"split_conditions":[1.155369E-1,-1.489136E-1,1.6083097E-1],"split_indices":[119,0,0],"split_type":[0,0,0],"sum_hessian":[1.63713E2,8.997169E1,7.374131E1],"tree_param":{"num_deleted":"0","num_feature":"512","num_nodes":"3","size_leaf_vector":"0"}},{"base_weights":[1.26331495E-2,-5.036951E-1,5.751886E-1,5.9022295E-1,-2.696991E-1,1.0992999E0,5.3975904E-1],"categories":[],"categories_nodes":[],"categories_segments":[],"categories_sizes":[],"default_left":[true,false,true,true,false,false,false],"id":113,"left_children":[1,-1,3,5,-1,-1,-1],"loss_changes":[5.132029E1,0E0,1.23312E0,1.5487213E0,0E0,0E0,0E0],"parents":[2147483647,0,0,2,2,3,3],"right_children":[2,-1,4,6,-1,-1,-1],"split_conditions":[3.5057348E-1,-1.5110853E-1,3.4821698E-1,8.368145E-1,-8.090973E-2,3.2979E-1,1.6192771E-1],"split_indices":[98,0,0,413,0,0,0],"split_type":[0,0,0,0,0,0,0],"sum_hessian":[1.7468683E2,9.114039E1,8.354643E1,8.2381905E1,1.1645262E0,5.555399E0,7.682651E1],"tree_param":{"num_deleted":"0","num_feature":"512","num_nodes":"7","size_leaf_vector":"0"}},{"base_weights":[3.5945076E-2,-4.9614096E-1,5.4899377E-1,-3.8225788E-1,5.871286E-1,1.2428774E0,5.536539E-1],"categories":[],"categories_nodes":[],"categories_segments":[],"categories_sizes":[],"default_left":[true,false,true,false,true,false,false],"id":114,"left_children":[1,-1,3,-1,5,-1,-1],"loss_changes":[4.8661423E1,0E0,3.4461231E0,0E0,1.2335491E0,0E0,0E0],"parents":[2147483647,0,0,2,2,4,4],"right_children":[2,-1,4,-1,6,-1,-1],"split_conditions":[3.083285E-1,-1.4884229E-1,1.0981965E0,-1.1467737E-1,3.4593576E-1,3.7286323E-1,1.6609618E-1],"split_indices":[200,0,392,0,200,0,0],"split_type":[0,0,0,0,0,0,0],"sum_hessian":[1.762583E2,8.654004E1,8.971826E1,3.174449E0,8.6543816E1,2.4485877E0,8.409523E1],"tree_param":{"num_deleted":"0","num_feature":"512","num_nodes":"7","size_leaf_vector":"0"}},{"base_weights":[3.7854098E-2,-4.96258E-1,6.027768E-1,-3.109741E-1,6.2453246E-1,1.117775E0,5.362439E-1],"categories":[],"categories_nodes":[],"categories_segments":[],"categories_sizes":[],"default_left":[true,false,true,false,true,false,false],"id":115,"left_children":[1,-1,3,-1,5,-1,-1],"loss_changes":[5.246924E1,0E0,1.8735847E0,0E0,3.0083847E0,0E0,0E0],"parents":[2147483647,0,0,2,2,4,4],"right_children":[2,-1,4,-1,6,-1,-1],"split_conditions":[3.8103825E-1,-1.488774E-1,7.7688646E-1,-9.329223E-2,4.5822865E-1,3.353325E-1,1.6087317E-1],"split_indices":[498,0,55,0,498,0,0],"split_type":[0,0,0,0,0,0,0],"sum_hessian":[1.719021E2,8.84231E1,8.347899E1,1.6321808E0,8.184681E1,1.0655749E1,7.119106E1],"tree_param":{"num_deleted":"0","num_feature":"512","num_nodes":"7","size_leaf_vector":"0"}},{"base_weights":[-3.0926293E-2,-4.963789E-1,5.3620297E-1],"categories":[],"categories_nodes":[],"categories_segments":[],"categories_sizes":[],"default_left":[true,false,false],"id":116,"left_children":[1,-1,-1],"loss_changes":[4.3741222E1,0E0,0E0],"parents":[2147483647,0,0],"right_children":[2,-1,-1],"split_conditions":[1.2842534E0,-1.4891368E-1,1.608609E-1],"split_indices":[18,0,0],"split_type":[0,0,0],"sum_hessian":[1.6369586E2,8.997588E1,7.371998E1],"tree_param":{"num_deleted":"0","num_feature":"512","num_nodes":"3","size_leaf_vector":"0"}},{"base_weights":[7.992993E-3,-4.962949E-1,5.778208E-1,-2.5690484E-1,5.920216E-1,1.1890628E0,5.36229E-1],"categories":[],"categories_nodes":[],"categories_segments":[],"categories_sizes":[],"default_left":[true,false,true,false,true,false,false],"id":117,"left_children":[1,-1,3,-1,5,-1,-1],"loss_changes":[4.883307E1,0E0,1.0977631E0,0E0,1.9854641E0,0E0,0E0],"parents":[2147483647,0,0,2,2,4,4],"right_children":[2,-1,4,-1,6,-1,-1],"split_conditions":[6.505504E-1,-1.4888847E-1,7.612555E-1,-7.707146E-2,6.737031E-1,3.5671887E-1,1.608687E-1],"split_indices":[327,0,12,0,327,0,0],"split_type":[0,0,0,0,0,0,0],"sum_hessian":[1.6794058E2,8.916241E1,7.877817E1,1.0319012E0,7.774627E1,4.908432E0,7.283784E1],"tree_param":{"num_deleted":"0","num_feature":"512","num_nodes":"7","size_leaf_vector":"0"}},{"base_weights":[-2.9767744E-2,-4.963783E-1,5.3614545E-1],"categories":[],"categories_nodes":[],"categories_segments":[],"categories_sizes":[],"default_left":[true,false,false],"id":118,"left_children":[1,-1,-1],"loss_changes":[4.38413E1,0E0,0E0],"parents":[2147483647,0,0],"right_children":[2,-1,-1],"split_conditions":[2.4806418E0,-1.489135E-1,1.6084364E-1],"split_indices":[307,0,0],"split_type":[0,0,0],"sum_hessian":[1.6401929E2,8.996423E1,7.4055046E1],"tree_param":{"num_deleted":"0","num_feature":"512","num_nodes":"3","size_leaf_vector":"0"}},{"base_weights":[-3.0668192E-2,-4.9637848E-1,5.360522E-1],"categories":[],"categories_nodes":[],"categories_segments":[],"categories_sizes":[],"default_left":[true,false,false],"id":119,"left_children":[1,-1,-1],"loss_changes":[4.3754913E1,0E0,0E0],"parents":[2147483647,0,0],"right_children":[2,-1,-1],"split_conditions":[1.2669022E0,-1.4891355E-1,1.6081567E-1],"split_indices":[504,0,0],"split_type":[0,0,0],"sum_hessian":[1.6377562E2,8.996762E1,7.380801E1],"tree_param":{"num_deleted":"0","num_feature":"512","num_nodes":"3","size_leaf_vector":"0"}},{"base_weights":[1.02966964E-1,-4.8378286E-1,6.136507E-1,-4.9430203E-1,1.865538E-1,-4.2210907E-1,6.767426E-1,9.2717826E-1,5.8739597E-1,1.1565757E0,7.561663E-1,1.202191E0,5.386847E-1],"categories":[],"categories_nodes":[],"categories_segments":[],"categories_sizes":[],"default_left":[true,true,true,false,false,false,true,true,true,false,false,false,false],"id":120,"left_children":[1,3,5,-1,-1,-1,7,9,11,-1,-1,-1,-1],"loss_changes":[5.5770817E1,7.036381E-1,6.7827873E0,0E0,0E0,0E0,1.5609016E0,2.8301239E-2,1.5111351E0,0E0,0E0,0E0,0E0],"parents":[2147483647,0,0,1,1,2,2,6,6,7,7,8,8],"right_children":[2,4,6,-1,-1,-1,8,10,12,-1,-1,-1,-1],"split_conditions":[1.7809686E-1,3.6004913E-1,9.380202E-1,-1.4829062E-1,5.5966143E-2,-1.2663272E-1,5.2615297E-1,3.1509697E-1,1.033581E0,3.469727E-1,2.268499E-1,3.606573E-1,1.6160542E-1],"split_indices":[23,235,0,0,0,0,462,235,0,0,0,0,0],"split_type":[0,0,0,0,0,0,0,0,0,0,0,0,0],"sum_hessian":[1.841331E2,8.570968E1,9.8423416E1,8.464402E1,1.0656608E0,5.324379E0,9.309904E1,2.2014833E1,7.1084206E1,6.9409885E0,1.5073846E1,3.480179E0,6.760403E1],"tree_param":{"num_deleted":"0","num_feature":"512","num_nodes":"13","size_leaf_vector":"0"}},{"base_weights":[-3.309908E-4,-4.98713E-1,5.763729E-1,1.255578E0,5.509949E-1],"categories":[],"categories_nodes":[],"categories_segments":[],"categories_sizes":[],"default_left":[true,false,true,false,false],"id":121,"left_children":[1,-1,3,-1,-1],"loss_changes":[4.9056534E1,0E0,6.7201805E-1,0E0,0E0],"parents":[2147483647,0,0,2,2],"right_children":[2,-1,4,-1,-1],